6989 50
de 0.038040996 0.43972778 -0.6764534 1.4994901 -0.31097323 0.5460544 0.71590114 -0.987328 -0.39554328 0.5947448 0.837035 0.19083785 -1.5404811 -1.3955683 -0.5994113 -0.46139497 -1.2373598 -1.0268469 1.6343361 -1.7107253 1.4062827 -0.14158198 -0.80897033 0.37878203 0.15286544 0.0031773925 1.0655179 -0.6517942 -3.2390554 -0.20867458 -0.09252019 -0.6751285 0.5531525 -1.2597744 -1.0408674 -0.10352289 -0.57775176 -0.30713755 -0.16045626 -1.7010694 -0.56901366 0.23661782 -1.4244618 -2.0332508 0.047069024 1.3204263 -0.7928341 1.2655867 0.7417428 0.39959282
que 1.019282 0.7376035 -1.0609341 -0.18614917 0.24610211 0.86036813 -0.6061698 -2.214602 2.144029 1.2363999 -0.0077432212 0.82026196 -1.507032 -2.1812036 1.7065485 0.3663516 0.14334738 1.3907608 0.2426866 0.5747551 -0.013137919 0.8913001 -0.6331829 -1.9356908 -0.3484786 0.8217897 1.4844043 0.68209136 -0.7128762 -1.2723788 -0.0674476 0.007744475 -0.73206145 -0.31268114 -0.45033643 -0.46049237 0.19279228 0.56864583 0.254064 1.1026675 0.1299945 0.063212015 -0.34944186 -0.6338355 0.7715513 -0.6007965 -0.42660436 -0.49379778 -1.4497828 0.33445606
a -0.22140771 0.1544723 0.5201616 0.09793213 -0.5665954 0.49890578 0.6582521 -1.4088354 0.097641155 -0.4627317 0.34452862 0.24542896 -1.1715198 -1.2475569 -0.9780814 1.141245 -0.85939735 0.24450424 0.36147025 -0.5718623 0.52249366 0.94288164 -0.06243033 -1.0200974 0.805174 0.38075724 1.9811484 -2.7198813 -1.1753035 -0.7764253 2.2922583 -0.0320601 1.3641468 -0.019870693 0.47710824 0.5621387 0.45932075 -0.25241005 1.246477 -0.21730067 -0.75066984 -2.0888891 -2.949001 0.30609685 1.1762279 1.69525 1.3624192 0.89387363 -1.4638462 -0.5415486
e 0.31001815 -0.12683025 -0.13451304 1.417443 -0.3120309 0.8216798 1.1086425 0.07625028 -0.019174239 -0.56718737 -0.7559255 0.5804916 -0.5017399 -0.6438603 0.0074019264 -0.6666942 -0.59584373 -0.61278063 0.47547898 -0.06015532 -0.0139197195 1.2069577 0.4138302 0.53553206 -0.2944206 -0.32203507 1.0925503 -0.8677783 -1.269521 0.43858013 -0.42979383 0.012909883 -0.51551956 -0.014273979 -0.13522111 -0.621399 -0.62488455 -0.45638427 0.5572416 -1.208719 -1.6512704 -1.0695605 -1.2592249 -1.7444623 0.889699 -0.7502694 -0.57207495 -0.12242515 0.41837585 -0.16411608
o -0.19281405 -0.16121207 -2.0650084 0.4492174 -0.39407668 0.30005133 -0.8488854 -1.0466787 -1.7214463 0.091777384 -1.3705797 0.37084514 -0.51547927 0.045809027 0.6256997 -1.4481388 -0.519014 1.680854 0.22269025 -1.3871721 -0.3569983 1.734195 -0.51479787 -2.248265 0.86376023 -1.417481 3.0011253 0.6299963 -1.048254 0.38166338 0.07199159 -1.5439926 -1.4718565 -0.2699284 -0.16103692 -1.129342 -0.7943103 1.6771922 0.95466757 0.041372355 -2.310283 0.19100675 0.5931278 0.59545046 0.8392436 1.4809527 -1.0877899 0.4338068 -0.6074583 -0.4663684
harry 0.7917725 -0.896607 0.1540889 -1.0031571 -0.8997232 0.5059733 -0.5945404 -0.69567806 -0.7434591 -1.5991439 0.9732893 0.6264643 0.15592828 0.13714439 0.78847814 0.13623077 0.49315092 1.9686222 -0.78839177 -0.115711294 -0.09310779 0.81056935 0.51879466 -0.58420396 -1.0338682 -0.4280949 1.9675947 -0.08778956 -0.23188435 -0.4694104 -0.100029305 -0.8922598 0.38478413 -1.2678739 0.12343643 0.2233378 0.63880104 -0.87825865 1.0978565 0.12548625 -1.3324146 -1.5026585 -1.1980811 -0.049963176 -0.15577975 -0.21089615 -0.5018172 -1.2578642 0.52978903 -0.8548917
não 0.31220648 1.3196715 -1.500743 -1.5756241 0.70720494 0.44741535 -0.56550336 -0.56810397 2.6700065 1.0365705 0.75985014 0.47515804 -1.5383683 -2.652673 2.174953 0.49464503 -0.4273623 0.93641096 -0.0404646 0.26413828 0.55513823 0.55451524 -1.2067403 -1.9749129 -0.62534004 1.178675 0.76840365 1.8285619 0.7646067 -1.6849465 -0.2171537 0.2225641 -0.28855518 -0.97411853 -0.7462913 0.74302226 0.35568437 -0.024501912 -1.5755073 2.9801815 0.2941508 0.5753478 0.8948794 0.781051 1.5744079 0.41236794 1.2470124 -0.4934564 -1.8615572 0.40939927
para -0.59373325 0.16782932 -1.0773027 0.7941382 -1.0905864 1.5952284 0.27133715 0.46394745 -0.77634466 -0.6156838 0.3722007 -0.92026544 -0.107793495 -1.671643 0.3036656 -0.46312436 -0.54121226 -0.5083685 -0.81052047 -1.2209485 2.5884583 0.61001885 -2.6270823 0.70149994 2.5380585 -0.809246 1.6240016 -1.4489459 -1.0456605 -0.7089515 -0.53018093 0.82138777 0.99711704 -0.98998696 -1.7839636 -0.90497744 -0.6665128 0.3855044 0.39848462 -2.516296 -2.112265 -0.24686444 -1.7316171 -0.9623685 0.8223713 0.82857704 0.5236045 1.2635356 -0.9722902 -1.3204341
um -0.2990559 -0.29301944 -1.3938059 0.8765294 -0.14120238 -0.33990514 -0.77483296 1.1392034 -1.8967913 -0.3084712 -2.3275812 0.99884397 -2.1503778 -0.79778796 -0.1941327 -2.9262586 -1.8006434 1.6383215 1.3525926 -0.9507739 -1.1995813 0.57126987 0.16388623 0.66961634 0.823384 -1.1234622 2.1392112 0.930702 -3.0886362 1.2613038 1.174333 -2.3620605 -0.7235731 -2.2627347 0.46905681 -1.3110313 -0.9395471 1.1351305 -0.0679409 -0.41326874 -1.619383 -0.5209063 0.4553292 2.2812648 1.5656058 0.058341905 -3.190765 0.8833088 0.2372271 -1.0244125
se 2.1984599 -0.02316324 0.16669592 1.1204258 -0.6196696 1.0125189 0.2475587 -1.0053225 -0.08522036 -1.2683778 -0.21304919 -0.3694136 -0.6686391 -1.3792896 0.3255373 -0.7885108 1.460188 2.2236307 0.55707777 2.3462994 -0.49706247 0.30985558 -1.0122349 -0.7947586 1.2180974 -0.33822158 2.9149303 -0.29901436 1.0679623 -2.3411798 0.42463472 -1.2841104 0.89341724 -0.7583353 -0.9441294 -1.4148196 0.39792973 0.79956913 -1.0333452 0.44835815 -0.9420684 -1.2618134 -0.7607296 -0.19115977 0.56827265 -1.2452914 -0.23089145 0.74575394 -0.22742914 -0.5090638
uma -0.3879259 -1.0626296 0.134674 -1.2406728 -0.0144509915 -0.22740349 1.225315 -0.6762815 -0.39200366 0.6193358 0.56652963 2.5387986 -3.1802576 -2.2265542 -0.9225456 -0.17913325 -2.020945 -1.0423775 1.6538275 0.41170466 -2.142657 -0.4323008 2.4416862 -1.7101489 1.7974254 0.444899 2.725522 -2.854872 -1.0486767 -0.041244783 3.638428 -1.9880471 1.3052497 -1.5576322 1.5804515 -0.05628351 0.7923562 -0.23851734 1.3439115 -0.93458295 1.935606 -1.91735 -2.0655413 0.35356835 0.8229189 0.32394376 -0.21060404 3.204085 -0.53682953 -0.0006719063
os 1.9786104 0.16008948 -0.039992064 3.3269932 -1.813605 2.3116837 2.9343407 -0.6322759 -1.7523983 -0.9418086 2.6112313 -0.272285 1.3389322 -1.9206913 0.85474616 0.30656505 0.12037812 0.47146425 0.64415485 -1.0900991 -1.116539 0.048342325 -0.2831609 0.9811765 -1.1300871 0.3885901 -1.8911369 -1.9294583 0.8210685 -0.47373664 -0.80561095 -2.3240912 -2.347951 2.0079253 -1.4572116 -2.0244975 -0.8953737 1.8150315 -0.36422744 -0.49398354 -1.5811032 1.7741774 -3.5622392 -1.4638281 2.2357945 -0.339697 -0.9377536 -2.6413188 0.49534598 -2.8888755
com -0.367239 0.60252035 -0.9158705 0.628987 0.16009383 0.859704 2.0606363 -0.8205303 0.35682517 -1.6595021 0.3429296 -1.2441831 -0.60232913 0.323709 -0.84402215 1.3139629 0.856785 -1.4493355 0.6084578 -1.4909973 0.8135527 0.20745772 0.527418 0.5333191 1.1847128 1.3485129 0.9145799 1.0389369 -0.6565713 1.250071 1.3750795 2.5127618 0.3774391 -0.06539617 -0.5644623 0.92692757 -1.1794486 -1.7427702 0.27293625 -0.121837914 -0.26727217 -0.039537925 -0.5671215 -2.949522 0.27339438 1.389039 -1.3691219 0.380748 0.94175667 1.1680127
do -2.3713932 -0.71417564 -3.1270432 0.9167203 -2.5204341 -0.19662613 1.0827043 -1.0587827 -1.2942914 1.2004738 -0.8326179 0.24520151 0.16651316 -0.7974392 0.7618922 -2.0431294 -0.0325487 -1.2278866 1.1945878 -0.27761367 -0.8656335 2.7943878 -1.9921588 0.24363871 1.4392104 -3.2805617 3.236478 0.44474295 -2.4793468 1.5029676 1.6470164 -0.66479766 -1.5538368 -0.97343004 -1.1544178 -0.32145187 -3.028546 1.6329205 -0.07826278 -0.9986751 -2.1061459 -0.21152614 0.23087996 -1.0577774 -0.7295502 1.720587 -1.5249397 1.6822945 -0.5770306 -0.08496466
em 1.3844472 0.28607154 0.13006265 -0.079218075 -0.90136635 0.508444 1.1153964 -1.3135161 -0.018763745 0.6764683 0.22917439 0.6479858 -2.4830787 -1.8116655 -1.6893994 -1.0515026 -0.9631812 -2.0083323 0.80923414 -2.9121368 0.6194364 0.11510252 -0.123545885 -0.7384855 -0.0980994 2.9782243 1.9852905 -0.51265275 -1.2275636 1.2523404 0.23637736 0.6520669 1.1113977 0.69429964 -1.5410507 -0.44985598 -3.3257551 -0.42894632 -1.9557314 -3.57443 -0.8722782 -0.23129122 -0.8740332 0.8489363 -0.27252507 0.49322626 -1.0855578 -1.8701015 3.1201763 0.50374705
ele 1.3495375 -1.2291491 0.2031344 -0.7041529 -1.2454486 0.5409378 -1.6232443 -1.4232523 -0.102624685 -0.79347414 0.45070642 1.3841578 -1.7438377 -0.052696098 1.3311044 0.261853 -0.7674083 2.2209432 -0.24530472 0.0774524 -0.06829802 1.5168879 -0.7135333 -2.352425 -1.1888894 -0.048410088 1.5889502 0.6294166 -0.13037471 -0.76894 -0.4848296 -1.427803 -0.1771479 -0.51030487 -0.51807183 0.7240256 1.0037289 -0.46349844 1.3020179 -0.09444134 -1.5041069 -0.8023528 -1.3273538 1.2070211 0.44513097 -0.29250893 -0.64801234 -0.5024294 -0.6914453 0.0635746
da -1.9266902 -0.45161763 -0.49487555 3.3517053 -1.3628058 -1.2071393 3.7823684 -1.4329472 -1.0381826 1.6209606 -0.27122465 1.9321588 -0.13715331 -1.7787861 0.29134533 -0.10587283 -0.5152432 -2.5319953 1.3611897 -0.49788454 1.7018802 2.2419755 -1.2616045 -0.43649456 1.1211032 0.11642139 0.88739306 -4.126592 -3.0669734 -0.027130961 2.6237535 -1.386918 2.6766825 -0.5941637 -1.1035328 2.298871 -1.605075 0.37628365 1.1743702 -2.5929968 -1.8124279 -0.45347428 -2.3909793 -0.6872624 -1.4282628 0.8657925 1.5464805 2.8959663 -2.6816318 -3.1725779
disse 0.10252932 -0.61581194 0.19219334 -1.0939158 0.1042774 -0.25315306 0.27126536 0.39358214 2.21898 -0.8805462 -1.4547814 -0.31044972 0.3609482 -0.5300925 0.30315268 0.98009616 -0.4121124 1.0430882 -1.9616047 -2.1403804 -0.79190516 1.3356062 1.4603606 -0.99283725 1.5218953 -0.5420964 -3.7619557 1.5081012 -1.6715045 -0.14495867 -1.5192732 -1.1179606 0.2197697 -1.0639589 0.87078524 -1.5733078 -1.3879399 -1.2085673 0.61861026 0.29804185 2.0738704 -1.2217898 1.8878341 -1.8634377 2.3616765 1.9826473 2.1258163 1.8675593 0.93562174 -0.28079224
é 0.12418519 1.1812233 -0.14142314 0.3237912 -0.56884515 -3.5173457 -0.25592458 1.7155392 3.0778518 3.226144 0.035770074 -2.2556696 -0.5421225 -1.225004 3.1920075 2.2136352 1.235098 0.13162029 0.51247656 -2.186303 -1.7378067 0.4268299 0.8542625 -1.6909345 3.8019555 0.6604708 -1.0986217 2.068507 3.023439 -0.045970872 1.4950783 0.96096826 -0.51954746 -1.4094379 0.826062 -1.9691565 0.8010004 0.7516973 -1.0886418 0.124530315 1.7488155 0.46877417 4.6184807 1.288191 -0.49946362 1.5086405 0.6250066 1.980593 1.4684395 -0.16446124
no -1.8206569 1.1796786 -1.0176404 2.2750752 -0.5108636 -0.63351715 1.0456872 -2.5074222 -1.0822086 0.7796512 -0.50951993 1.4884677 -0.25278267 0.79786897 -1.1606519 -3.7562902 -1.0048116 -1.1723278 0.5844992 -2.4108517 -0.033969544 3.20244 -1.7358854 -2.1241417 1.5754118 -2.14316 2.1171525 -1.9158154 2.1276267 1.3029052 -0.48954245 0.23210526 -0.58661693 1.427594 -0.92157906 -0.7371234 -3.370621 -0.49022195 1.9038241 -1.4412191 -3.3270614 0.21976863 0.93151206 0.8692958 3.3555284 1.0721866 -4.5913315 1.7276218 2.1891503 2.3144145
rony 0.08679114 0.093215406 1.8489667 -2.2942426 -1.335612 -0.88862866 0.90103316 0.019453492 -2.21169 -3.5406914 0.7889861 0.4876014 2.4917216 0.46694306 2.23308 -0.9878168 0.12525432 2.0765445 -1.5089394 -0.9484636 0.8861201 0.3810492 1.7121568 0.49428657 -1.2295164 -0.68716985 -0.46293738 1.4028811 -0.35507342 -2.7187786 1.105461 -0.7096088 1.9135675 0.94623864 2.0809433 1.2015686 0.73906136 -0.018628778 -0.02525737 -2.0073326 -1.1882838 -2.0838604 -0.059565965 0.77368 -0.42880008 -1.3383902 -2.0956473 -0.67729956 -1.0214032 -0.5216303
na -0.9605781 1.551832 1.9576567 1.5035472 1.9159421 0.18691878 0.34877893 -2.0801055 -0.0855645 1.2880367 0.007507392 0.29781657 -1.5399138 -0.62225 -1.1707053 0.79162836 -1.4409791 -3.8220954 1.4007063 -2.8688347 1.8581092 2.9302237 2.755671 0.0569454 0.9831991 3.4887853 3.1573205 -4.2561526 0.8464407 -0.69479495 2.0836043 -0.85445076 4.0077295 1.5858616 0.8536755 2.336632 -1.9965477 -0.38697138 0.288467 -1.5836778 -0.5826453 -1.0341357 -1.9615871 0.39553908 1.3170171 1.6159025 2.1052642 0.9384137 -0.54410803 -0.12043392
você 1.2148423 -0.08807778 -0.8451257 -0.47511542 1.49513 -0.21912585 -3.4017966 -0.28619814 1.9410272 0.39312616 1.7331607 0.7930939 -1.790382 -1.4268599 2.5253966 1.9153222 -0.51515144 2.7510207 0.80761456 -1.3826929 -1.5611433 1.6839219 -0.117530495 -4.6561856 -0.74886245 0.49133804 -0.8376518 2.4067903 2.6262302 -1.3913295 -0.6752844 -1.0557526 -0.48719335 -1.0113353 -0.7474537 -0.35752574 1.4705056 0.34127507 -0.3674658 -1.2247825 1.4111047 -0.23578785 0.52343524 1.1258488 1.1286762 -0.23957619 1.9795171 -0.45635104 -1.2993941 0.15597846
mas 0.67747134 -0.14719719 -0.62034446 -0.0065628956 -2.0534582 0.49131656 -0.23166999 -1.6359586 2.9151974 0.020845052 -1.1694974 0.7631041 -1.460422 -1.9516417 2.7176824 -0.052917156 -0.72364795 0.8847398 -0.092985116 0.6065094 -0.7745313 1.2070843 0.4158773 -0.65656894 -0.70277625 1.2182856 0.8391887 0.7629859 -1.370084 -0.66403145 0.06679302 0.9113636 0.10651529 -1.3845139 -0.41145697 -0.43673667 -0.76293015 -0.8975615 -0.24948029 1.4111879 -0.6135661 -1.0958158 -0.8201931 -0.11342282 2.4371567 -0.7668437 0.5302955 0.07683001 -0.40796828 -1.5908566
por -0.020421198 -0.19572292 1.6692568 -1.9663761 -3.2114289 2.6340823 2.3225565 2.9286664 2.9341931 0.91922396 -0.9053681 0.35257626 -0.7937257 -0.671266 -1.864726 -2.9105418 0.7534277 -0.14337951 1.677583 -1.7569784 -1.0180774 2.7289622 -1.9774706 0.49261525 2.736692 0.28623518 0.57287544 -0.99012905 -0.7839811 0.35269433 -0.45426172 2.1555486 0.13227598 -0.46975175 -3.7716744 -2.4326806 -2.3825452 -2.9728894 0.45208704 -0.9286612 -1.0531988 3.17682 -0.48551854 0.5273932 -1.486985 -1.5700183 0.55271053 -0.54199183 -2.04531 0.75564754
as 1.6776596 -0.9963953 3.299349 -0.9197413 -2.1454754 1.4991156 -1.299042 1.8175923 -1.5624942 2.618445 0.5975993 -1.5364192 2.42721 1.2478591 0.9669719 -1.9209229 -0.924563 -0.9504831 -0.29304707 3.4859943 1.7425817 -0.83970106 0.77515936 -2.5124876 0.21484363 -1.606448 1.9685616 -3.9003723 -3.8309557 -0.8013807 -3.7332222 0.4667305 -3.9831161 5.005913 -1.2130647 0.5973494 1.5905064 0.09975449 -1.3923177 1.2275238 -2.7690747 -1.2438163 -4.2078595 -1.766971 0.49750155 1.1994909 1.5222377 -1.7867206 2.7500138 2.7704463
mais -2.0728695 3.6949496 2.5051308 -2.4457436 -2.544285 1.6094443 -2.7187839 -3.0395665 1.0544451 0.26462474 -0.8412267 0.6893473 -2.364413 -3.654598 1.1273777 -0.12970667 4.0711226 -0.2625117 -0.72672737 -1.9494212 -0.13667329 0.7695298 0.4092829 1.3174237 -0.14225826 -0.8926894 -2.1266296 -0.3570706 0.08033112 -0.24153171 1.1282573 1.7771091 -0.7363249 -1.0108987 1.7975066 -1.3504322 -1.4251615 -0.9372933 -1.0883421 0.89949876 -1.5958338 0.43638146 -1.1675925 -0.66897964 0.8176296 -2.1106365 0.20547166 -1.9346052 0.007474455 0.65977067
estava 0.7442881 -1.752051 -0.17123316 -0.94052666 0.39774626 3.9502165 2.1624253 -1.6888531 -0.81962615 5.3738766 -0.439913 1.7855667 2.5777965 1.8396182 3.155962 0.6298525 2.1719403 0.3836715 -2.0588179 0.75464696 -1.6523063 -0.64160323 -0.92412394 3.9785764 3.0498512 1.242395 0.47575685 1.2261959 -2.3701167 -1.9140358 -2.5745776 -3.9280689 3.490329 1.856292 2.062159 -1.2608141 -0.9049777 1.4135264 3.2697659 -1.7167076 3.349367 0.28322294 0.6829788 2.802926 0.17260484 2.0687115 -0.1357475 2.240655 2.3515093 -0.29654014
como 2.914388 2.0114787 -0.09972971 2.0668154 1.4994404 2.2609317 0.5344601 -1.3278443 4.0161295 -2.4624724 0.28408012 1.2059985 -3.7620919 -1.0179155 -1.7360195 0.97243214 0.28274396 0.9390805 2.1618106 -0.53979063 2.078796 2.5461488 -2.432373 0.5201711 -2.2384803 0.73347276 2.0914207 1.7467673 -0.9791393 -1.374984 -3.1764867 1.548606 -0.8984882 -0.29212093 -2.5459616 -1.0760897 0.56555235 -2.21411 -0.22121064 0.80977666 0.07830609 0.5564994 -0.6031249 1.380283 1.7057064 0.6156071 -1.7287551 -0.7053463 -1.3176883 0.8628235
quando -0.39928997 2.5108442 -0.905452 1.2914556 -1.1822915 0.4135444 1.8465656 -2.9122505 0.14709012 -1.5429274 -3.2665977 1.3522594 -3.1277592 -1.5337591 0.86703694 -0.03887279 -2.220976 1.1067661 0.3741525 0.009213307 0.079673834 1.3745469 -1.6799817 1.2265904 -3.1434517 1.3602816 4.082147 -0.6663083 1.0535399 -0.8747002 0.020549685 0.73497385 -0.24656652 -0.5308301 -0.20860703 -0.7907212 0.14225635 -1.3454026 1.6789424 -2.0772905 -1.9558316 -3.5297663 2.3076248 -3.36022 0.85769045 0.56670976 1.0397917 -1.8255663 -2.1680408 -0.07259693
eu -0.106845744 0.52129143 -3.1935403 -2.8992162 -2.0065317 -2.1828396 -4.992308 -0.41452536 1.9762973 0.928609 0.65652055 -2.1540012 -1.2012329 -0.29767463 2.777394 0.41003284 -0.7262118 3.4153152 0.7152819 1.9676765 0.7527589 1.4525894 -1.242159 -1.7871733 -1.9267697 0.4762581 1.5103269 4.786786 1.5154454 -1.0071344 0.22697428 -1.1283815 -0.9792037 2.4525058 -0.8508158 0.71932554 2.66491 -0.058819488 -1.3564892 0.92403716 1.0652446 -3.7582552 1.8172507 1.4689289 0.1287362 3.9508898 2.262304 -3.5875652 -1.8470873 0.6028255
era -2.9741023 1.0484372 3.2568815 1.3391752 -1.6522168 -1.4564921 1.7928478 -3.972172 3.058908 5.177 1.1057836 -1.1256471 -2.7604923 1.5509934 3.5633147 -1.3586062 1.3479478 0.03855621 2.4654858 1.6136326 -3.2541492 -0.40414688 -1.2907954 0.19879933 6.2389674 -0.076042324 1.2080933 0.98026246 1.5148894 -0.3994386 -2.4395254 0.7978551 1.377663 -1.7810807 -0.35353965 -3.062679 -1.5895746 -0.98456866 3.7745779 1.499026 0.63668555 2.7629423 2.2937298 0.46849436 0.3868862 3.152656 -1.2884187 3.865284 2.4887314 0.8751962
à 0.8495716 1.2439319 4.3454823 3.020712 3.0051382 -0.7915518 0.9924933 -1.5371842 1.4657556 1.6136714 -0.90312994 -1.0085222 -1.3483773 0.80938095 -4.409139 6.4754424 -4.8522367 -1.4494287 -0.36024353 -0.13019904 0.38569266 1.2816786 0.7196962 3.6876128 3.2402308 3.8011875 4.6295896 -7.4570293 -1.6605802 -1.4872859 0.40072542 0.28958052 3.4474664 -1.7691287 0.303337 2.5106344 1.051684 0.713425 -3.853327 -2.688754 -1.5542446 -0.316316 -1.047893 1.2516298 1.8983132 2.9127216 0.89439654 -0.75888973 -2.813462 -4.867629
ao -1.3235536 2.3998234 0.09979319 3.797909 0.67211026 1.4984063 -0.7405934 -1.3851811 -2.8897758 -0.4501539 2.0368636 -1.9492221 0.3708988 1.609539 -2.4406774 -0.98294115 -3.3703213 0.9995459 0.30480012 -3.544409 -2.2520397 3.0374236 -1.085747 1.7312468 1.9795847 -4.490523 4.5789833 -3.9913008 2.4700053 -0.4682383 -2.4658358 2.2953308 -1.944387 -3.792431 2.2216136 3.2215455 -4.654046 -2.1901493 -1.9877938 0.8518861 -0.6087113 1.633586 2.0882475 1.7595965 1.1325432 5.8754406 -3.1397228 1.2930467 -1.1298685 -1.1300924
muito 1.3376503 3.436919 3.1740937 2.2781324 2.0277898 -1.1315087 -0.37950882 -3.283445 3.8637588 2.284895 1.2933255 0.35835335 0.7400881 -0.14357677 3.7134097 -1.1702199 1.3374187 1.8205718 0.6956176 -2.3228016 0.4339767 -0.4370158 -0.37376034 -0.73267967 -1.2867926 -3.4887798 -0.5929524 0.37740055 -1.7012677 -2.1408427 -1.6504669 3.3619192 -3.57274 -2.369009 1.953409 -0.31690484 -2.180036 -0.60594857 1.4867401 2.4587712 1.6971455 -2.9402661 1.1180264 3.3261397 1.9244361 -2.605398 -1.4259881 -1.8564545 0.2638452 1.5720475
foi 0.113295615 0.3107619 1.7413454 0.14234519 -1.6713309 -2.8057728 1.2712831 0.96927315 1.2146043 2.6318638 0.26511195 0.08639849 0.9359267 2.1711042 -0.72526693 -0.9322108 1.0130146 1.2345822 0.78548115 0.54873186 -2.3272312 1.6611497 -0.2118287 -1.1645614 4.1580253 1.2316669 0.43534705 1.5307318 1.2276261 0.1389689 -0.35384452 -0.26198533 1.60207 -1.7057431 2.8400443 0.5309748 2.8022602 0.92091537 0.3424162 -0.99303705 0.1310425 -0.52603316 4.3769403 2.1464822 -2.5500903 3.2994483 -0.91588104 1.5962247 1.9021976 0.30507678
hagrid 0.4806932 -1.3509202 1.1850222 -4.157709 -1.6995836 -1.0475612 0.9165187 -3.0778153 -3.3699353 -2.9200268 0.31290704 -0.80711406 0.8263411 -0.24954695 0.59823453 -0.4491237 0.5154736 4.1551256 -0.29411587 0.8424079 3.0301704 -0.28498894 0.48906454 -1.0612458 0.44257 2.0324316 1.5586079 1.6159601 -1.0280226 -1.2174388 2.5676525 -1.0145253 -1.0300043 0.76368773 2.6249254 0.6898999 1.821633 1.6475439 -1.4212166 -3.6183074 -1.2324506 -1.4710585 0.20564528 4.9206543 -0.24857509 -2.2658935 -1.0891107 -1.422172 -0.5047143 0.17499511
está 2.0533273 -1.8587986 -2.7256658 -0.9115674 0.9900971 0.896829 0.87977475 4.6735573 3.3771145 3.317567 0.3984365 2.3616354 4.2503858 2.1339548 2.244098 3.637425 5.5538497 0.03767611 -0.9565938 -3.017743 -1.4439173 0.9764636 0.54003465 1.362806 2.737412 0.73909014 -3.678206 0.008543707 -2.635737 -3.1481102 -0.33287033 -0.2056052 0.7840934 1.960834 1.3328004 -1.7640815 -0.21639727 0.40219635 -0.3237967 -1.734032 5.655573 0.07992334 5.010214 3.114405 -0.091773316 2.0283368 3.9688067 1.7855372 1.8808857 0.08699367
dos 1.9315271 -0.45273867 -3.8317776 4.7319746 -3.1046293 3.3063416 5.8831086 -0.44207627 -2.1601381 0.6693262 3.2401326 -0.787193 -1.4519975 -3.3358843 3.6723242 1.294275 3.8348103 -3.6639318 -0.12725581 -1.5621172 0.03157519 -0.2376604 -5.5345063 1.9615872 -3.240594 -0.4261933 -3.5307918 -2.988252 1.1113162 4.476581 2.2729862 -3.855366 -0.122083664 1.1770791 -5.1967125 1.8391408 -2.5909417 3.2929797 -1.9198135 -1.560671 -0.42042115 4.841998 -0.7257388 -3.142949 -1.6808047 -2.1832218 1.6890982 -5.576735 1.3713746 -4.403817
coisa -3.8810177 -2.720665 -4.8714805 -1.5692691 3.329267 5.776196 0.83994466 -1.8978391 4.508179 1.4489806 -3.3961978 -4.8651767 -1.7069275 0.9454115 2.2926135 1.0663027 -2.0930603 3.9007347 -3.1956704 -1.2630512 -1.8032537 2.736834 1.5407246 -2.7034917 -2.4710362 2.7144403 0.37592128 4.2368665 4.1538587 -4.2842097 -4.958896 -1.1967183 0.0051939753 -1.4722178 4.0360193 -1.7294183 0.84437793 0.9630549 -3.6400745 0.15999438 -1.351419 2.049561 -4.5853443 2.9095247 -3.6909623 -2.8453753 -5.097969 1.6539552 0.72551626 3.4523711
hermione 1.0700673 0.27921352 0.36501974 -1.7909592 -2.7416956 0.2540647 -0.6513563 3.8774374 -0.8439173 -4.080388 2.9516268 1.9278375 1.2878393 2.5301368 -1.5010976 -3.0266626 -0.8986633 0.6127169 -5.739406 0.56738406 1.2788842 1.9133624 1.6018587 0.3726443 -1.6381873 -1.1069477 -1.4258673 -1.8713523 3.9791884 -3.3136785 0.6367465 -3.9398584 2.1553762 -1.1545275 -1.6301616 4.8487825 -0.5756432 0.39241272 1.5217047 3.8304472 2.6042542 -0.75991625 -2.763185 0.6550726 -2.9504156 -0.26507097 -3.4732075 -1.2182207 -0.36990374 -0.54541194
sua 1.2467114 -4.8662047 0.4950199 3.697488 0.60713243 1.438691 -1.837667 -4.5291114 -1.5224164 0.06512458 -0.3525848 2.3915167 -2.603999 -2.8152592 -2.166885 2.4153934 2.2912433 -3.2108624 2.257792 -3.1832385 -2.4128184 0.40584177 0.7691359 0.43478966 -0.53486705 0.9154664 0.5602091 -1.1513462 -0.1864057 -0.24585398 2.6161485 -2.4742684 0.6433073 -1.7669903 -3.1853764 4.5954885 1.8185925 -2.4497898 0.61269444 4.039502 0.20944911 -4.3169003 -5.088793 1.6769866 -0.33413094 1.083583 2.2630422 3.0513117 0.034279674 -2.691026
me -0.14949681 3.011542 0.1323411 -2.793534 2.1804554 -0.68706626 -0.5083419 0.8673739 3.7603927 2.7837164 4.253757 0.09632013 1.5035783 0.1090987 -1.2067872 -1.7400913 2.0595937 6.4015274 0.89778614 -1.359454 1.6438922 -0.90395147 -0.85013807 -2.3200457 -0.8339734 4.7008758 3.092161 2.9913955 4.4309506 0.718059 -1.0044658 -2.3524 0.69292897 1.1617137 -1.4316448 -1.0886564 3.1381025 -0.8028695 -0.07969467 -1.278994 1.3781058 1.5246813 1.523544 2.686998 3.1668959 -0.6256769 3.081655 -1.1192 -4.7118373 1.4057531
seu -0.12275241 4.3468776 -2.3413851 1.2861837 -0.5436193 -3.6934032 -1.7112699 -0.3534161 -6.326015 -0.94965726 -0.8640878 2.9309359 -1.1424568 1.8303638 -0.2657395 -0.3517909 2.1188886 0.84004194 -0.36182398 -4.326128 2.1806526 2.468289 0.044225655 -3.2711573 -4.465353 -4.689317 1.5536592 -0.2991997 -0.5087743 2.939853 0.33789602 -5.9982915 0.16309512 -3.1244597 -2.4141424 -2.2977452 -0.7432352 1.6091708 -1.6043417 5.1896586 1.1014457 0.90582895 -1.2671783 -0.029648764 -2.5729961 -4.389079 0.8311021 2.78893 -3.1915398 2.7278674
eles -4.9740477 1.4123744 1.5318936 1.7622361 -4.309982 -0.23230503 -0.6194071 2.9509277 -1.71171 0.72590756 1.4101936 1.3863865 1.8256412 -0.7488781 4.1305504 2.3661163 -2.8968163 -1.2353961 0.62874883 3.7640471 -0.05108921 5.32548 -0.075415134 -0.07694346 0.6194208 1.0246971 -3.9184632 -3.3087032 1.0101179 -2.0641637 -3.205379 -2.5325255 -4.6520762 -1.8008002 3.0443192 1.4407309 2.9397464 -0.40528733 -3.4237247 2.4629953 -3.1541643 -0.7101252 -0.832803 -0.08734255 -0.141494 -0.7846155 0.0330089 3.2783008 1.1572791 -0.4120099
ela 1.4679227 -2.9449055 1.8854814 -1.1177533 -1.1306717 -1.4609879 -1.1495799 0.7333039 -0.0059520267 0.5704794 0.8755588 1.8266301 -2.2259727 1.2639456 -0.58264923 1.9658405 -2.5137777 3.409652 -1.624713 0.43936995 -1.7577595 1.7609504 0.23185423 -4.571604 -0.69744074 1.6621501 0.6782608 -0.22617757 1.3750206 -0.2836959 0.31343263 0.9278413 -0.21795931 -1.3735332 -0.17309888 0.9678272 -0.31717268 -0.4518021 3.1241937 -0.9760235 -1.5677807 -0.10102623 -4.590803 2.6452098 -0.123766825 -3.802648 0.2299336 -1.1987245 0.09886416 0.5674879
bem -0.34922737 -0.04499226 -0.64707434 0.16869497 -2.8934906 0.62775236 -1.0388244 1.79488 2.5677533 -1.0350231 -2.4523685 -0.736722 0.4343693 -1.292294 1.5014184 -1.3912321 2.214745 -1.684065 -0.4002868 0.77913237 0.16680604 -0.10072289 3.4482658 -2.8306458 -1.422419 0.71598446 2.1783085 2.1422098 2.6094046 0.43504205 2.8963685 0.112116516 -2.745647 -2.4522793 -0.266993 -0.121384986 0.7641296 0.610003 -4.2150254 2.6300774 0.20952351 -0.49249816 -0.9176308 -2.0216548 2.5070562 -3.2632506 0.68138856 1.6014469 0.7262507 -1.1655902
das -3.2137804 0.8282051 0.1978223 -0.42000887 -3.046006 3.8868477 -1.1381193 6.383808 3.8105597 0.2926082 -1.0497941 -3.074769 -1.7216889 2.9439209 0.9715153 -3.2621052 1.9242952 -5.7023163 2.5955465 4.8605356 -0.71506864 -1.7444438 -0.5361539 -0.48747206 0.7375551 -1.8551232 1.0139354 -1.0567926 -3.1966698 1.8535427 -3.7253647 1.7722979 -2.6608336 3.2674043 -3.3713052 5.478681 -0.0871276 1.2219057 -6.8741083 0.66158825 -0.8962457 -2.2992558 -4.632556 -5.8598576 -4.480403 3.3936267 0.0027536026 -0.7684937 -0.2818309 6.1804767
cabeça 0.7853908 -4.917825 1.8816143 2.353235 -3.772042 -0.29153147 -0.83145475 3.2584152 -2.9084089 -0.2578996 0.9340932 0.12592728 -4.5328383 5.125167 -0.7811026 2.074968 0.25924477 6.713663 -2.1652765 2.2486558 -1.2163839 -0.3585364 -2.6389918 0.7206029 -1.8810216 -4.8421884 1.5035788 -2.393351 0.112217784 -0.34555048 1.0239156 2.34905 1.1645781 -1.1194844 0.3816182 -4.295231 3.8163 -0.6571823 2.9014533 2.4974658 -3.830488 0.5225799 2.7636144 -3.3889194 -0.23690616 -3.7276561 0.47943825 -0.13861825 1.1205175 0.39739892
olhos 3.0232506 2.3708346 7.1998525 0.8165975 -2.698697 1.7913116 5.9007573 5.145336 -4.9457006 0.96425754 1.51377 2.7167394 -2.7819633 5.03758 -1.3297793 -1.0880191 0.7712308 -4.053719 -4.587322 5.1721783 -1.737602 -5.8616133 5.102771 0.012988572 -2.5950158 -1.9424517 3.6758733 -0.30299467 -1.3910407 3.5556378 0.049131513 1.0174031 -2.835578 0.68082803 2.7797356 0.7598492 0.87663746 0.48779738 2.168147 5.327875 -0.114193216 -4.325077 3.0253258 1.9054242 -1.1275018 -5.801476 3.8685334 2.5648434 0.8101243 -1.9930195
isso 3.2571628 0.43472588 0.59204096 -1.4797236 -1.2718352 3.2171085 -3.5708199 2.2059455 1.8734016 3.809961 0.06189607 4.2789364 -3.3672543 -1.7117902 0.41234764 0.9476949 0.1943834 3.32106 -0.46668807 -2.5330014 -0.94886696 1.7794398 -0.10651492 -5.5246053 -2.890906 0.9247096 -2.3508844 2.3592608 1.2846446 0.013932814 -1.0868069 0.32768804 -2.4489272 -1.7931566 3.0284092 0.6431378 1.9194567 -0.5815382 1.1499048 2.2925444 -0.003955259 -0.40201655 -3.4500306 -0.3945466 0.945605 -0.16824168 0.4632433 -1.7364196 -0.16384618 0.5401924
até 0.0102494955 2.3908424 0.86965775 3.9870727 -1.1439768 1.15872 -0.038584433 -1.4720601 -0.9603895 2.165744 -2.9229467 0.2893938 -0.70047885 0.7282189 1.6306484 0.6311575 -3.2291124 -3.9962842 -2.946466 0.7678028 -2.5010529 1.4986358 -2.4287956 3.9805627 4.9051704 0.7597141 1.1873962 -0.8375081 1.431308 -0.11885289 1.1706376 6.873733 1.1551117 0.53030115 -1.4618986 1.1962256 -0.3581825 1.6507995 0.3588588 -4.7770505 0.17735367 4.217571 4.110669 -2.6165652 3.3322077 -3.4265313 -0.2589945 0.77059084 -2.357223 0.31972206
dumbledore 2.40716 -2.3925662 -2.2131927 -0.9787143 -2.3519113 -1.9155407 -1.1480265 -1.2712469 -1.686688 -1.1088754 2.275691 -0.92985123 -0.9313008 -0.6619095 1.4623266 0.37291408 -0.07072372 2.746717 -1.9072158 0.3008214 -0.9349927 -1.9096876 2.5195658 -2.7218618 0.28975165 0.20494585 1.308361 0.9104033 1.8682452 0.9025273 2.241833 -2.6628585 0.21139506 -2.2088237 1.5792373 3.956813 1.3521371 1.0375538 0.2734003 -0.12944005 0.8409694 1.4812263 -1.4088869 2.864175 -0.27076837 0.22827396 -0.42980653 -0.34827465 -1.2404326 -1.6237917
tinha -0.97640306 2.69497 -0.3279491 0.9904643 -0.80131054 -2.084337 0.82456535 -3.5297828 -1.3217807 3.6378534 0.5874201 -1.2420758 1.1598369 -0.9353406 -4.112532 3.0153286 3.0472474 -1.5645213 1.5502665 -1.3895388 0.6075671 -2.6305518 -1.8680712 2.3485067 -0.49566224 -0.19630425 0.68870586 8.885356 -0.72820044 0.549022 -0.6798484 2.4293685 4.0601525 -0.8352267 0.009674898 0.9956131 1.1080538 -3.7621381 2.4546807 2.7507148 4.00229 1.9572811 -3.1019342 1.0367465 -2.497652 2.9259706 -0.74585974 0.42682126 2.5334482 1.9600989
vez -1.1094885 -2.7123573 -0.11032901 1.184881 4.4233184 1.1132077 2.0380106 -3.3876624 5.2463064 3.1567366 0.5103055 -2.588726 -1.3774499 1.73328 -4.7378955 -1.4733124 3.125838 3.6030262 -2.68271 0.9500544 -1.5709032 3.934619 -0.94013786 1.1866535 -4.6560287 -0.31386325 -3.268246 0.7649701 2.7243452 -2.1187618 -1.0308768 -1.7819488 -0.82529986 -5.285409 -2.0993245 -2.5716734 -0.079886116 7.642992 1.4411865 -0.058652323 -4.78856 -3.6549025 -2.54064 3.6345246 -5.3474774 -0.4509122 -0.9822464 -0.28585988 -3.0893466 2.1546118
perguntou -0.8177368 -1.8080856 1.4373177 0.08104334 -1.3736393 -1.3447392 2.485735 -1.1157637 -0.5755528 -2.5574996 -3.0346766 0.37741455 1.5793474 0.54506296 0.52750313 1.1048604 0.016989853 -1.3217838 -3.1444728 1.1977295 -1.066816 0.8192824 2.0732741 1.135839 1.7625846 -1.5254291 -5.220258 2.1345942 -2.857069 -1.6014652 -3.679416 -2.134941 1.8582262 0.39562637 2.254964 0.60471284 -0.19301267 -0.83802414 2.0297494 1.7378379 0.9547727 -1.3202347 1.9597557 -3.120069 2.0423472 2.1197107 1.1561694 2.235244 1.8176349 -0.78423417
ter 0.43206903 2.4237924 -4.82153 -1.6664565 -1.6435727 -1.3326015 -2.183511 -3.460548 4.4416246 5.7590756 1.4828651 -0.49722213 2.5415926 0.8147393 -6.4713554 3.4180787 4.842686 2.3146195 2.5016317 1.9329627 -1.7851461 -0.044455122 3.4104054 0.65188456 1.1687608 -4.037273 -0.63024414 8.952664 0.98615366 1.9574548 3.0875967 3.685146 1.6545705 -3.0328643 0.024666632 5.3787427 1.3518199 -3.33726 -2.4740238 3.3581014 -0.5230938 4.0673904 3.6134536 -1.6233388 0.29895556 -0.015911018 -1.8268578 0.881881 -0.88065267 1.7656151
= -3.8704371 -1.6997545 -2.6126068 -1.6553445 1.1786882 -2.9610784 -0.82730496 -1.0058342 -1.9000665 2.5296674 3.2147453 -3.6785316 0.18596795 1.5968611 0.033771448 -0.045739707 -2.7406971 1.3858306 -0.72837234 -1.2866324 -1.3200771 -4.6525445 1.5022489 1.6513218 1.6802847 -1.883556 -1.7719145 1.6518116 -1.8632892 0.4751649 -2.2394197 -3.618712 -1.3582232 1.0269951 -1.5302101 0.14682332 3.8776734 -2.2055774 -0.9334164 -2.6806612 -0.06636957 1.2152302 0.22477573 -1.4792271 -0.16268441 -0.58242375 -1.0168667 -3.4270175 -0.9642698 3.7523537
sem -3.544019 0.9748628 -4.6051073 -1.1894097 -1.1490107 2.7556155 1.1914597 -2.224965 -1.7641541 -0.92104405 4.2701025 -2.2189374 -1.1729523 1.4227531 -1.0909662 -5.3988523 0.053521592 -3.5431213 1.374476 -4.706968 0.047318637 -0.6164716 -5.808506 -1.5444247 0.19464493 3.1608481 -1.8015292 0.849241 1.0205804 -1.6604234 0.28864828 2.9794972 1.3839769 -2.5983133 0.052772082 1.3992094 -0.82668734 -0.524872 -2.9010756 2.08921 -1.9337757 2.1115725 -4.8463645 -0.22656041 0.81332713 4.0818467 -0.45432985 -1.3170539 -5.2138247 0.06367258
então 2.4174628 2.084848 0.28630403 -0.6219936 0.05156435 -1.0364244 -1.7621166 0.01152953 2.1120944 -0.11072202 0.47718066 -2.7050235 -1.180556 1.2011291 -0.60396826 0.9477932 -0.2233438 2.7590268 -1.6452899 1.1107149 -0.34530297 1.3582438 0.04430506 -1.644249 -1.9608212 -0.02808276 1.5887069 -0.0027865143 0.50417805 0.5021254 1.172493 -0.9379983 -0.14689791 -0.6703545 1.5883502 0.4038588 1.6565737 0.5078317 0.25587416 -1.0724328 -0.5078927 -3.438193 0.37778667 -0.88059986 0.9541033 0.26502338 0.2488541 -1.7747675 -1.6647327 -0.17530416
vai -0.88426954 3.5716288 -0.27696067 1.5128853 -1.0118933 -1.1951301 -1.0071324 3.5932786 1.9930991 1.0731763 0.28975177 -3.0716996 1.4959172 -3.3542838 0.25240445 -2.2850518 0.081968576 -1.0709673 1.6212474 -5.135707 -0.13371111 0.7762483 -4.008349 -0.33039 4.014107 0.9823214 -3.7730892 1.3055845 4.356477 -3.858473 2.7432942 3.8791363 -0.86553514 -3.3889341 -0.04590177 -6.1950545 2.9915683 -1.610126 -2.2420173 -1.3888086 4.8126035 -4.4252653 1.345626 3.1405706 -1.1703203 2.7389982 4.3368907 -0.29783446 2.7799304 2.2090971
só 2.2041185 2.3705158 -0.84092665 1.508031 2.6161766 -1.3144007 -0.27301937 -0.9507948 1.7336311 3.330915 2.385602 -1.662272 -2.7770073 -3.2559023 3.4533775 -3.0473578 2.1470358 0.8221195 0.16378224 -0.6805408 4.702912 -0.9680951 0.9108318 -0.82887244 -0.36524117 4.079323 0.615715 2.084553 4.418936 -1.861275 1.4039553 -1.1556556 -0.6386361 1.0436143 1.1737623 1.8550531 -0.39196837 3.4264915 -1.3334862 0.6073727 0.19667384 0.16699198 0.61359185 1.13288 1.5764805 -2.9269598 1.4811587 1.7976475 -3.7789183 0.96565175
ser -2.017085 0.641485 -0.35378286 -2.4489112 0.5546458 -0.3651605 -0.17893669 -3.5636594 6.3477764 4.07542 0.10937439 -0.32542896 -1.3885497 -1.1074364 -0.41132212 2.4062383 1.7371352 2.543868 0.91751295 4.258596 -1.561574 -3.0619779 1.8410426 -2.0650167 4.892174 -4.129782 -1.6437835 3.5608716 1.4675077 0.29870757 0.2973184 0.47783613 2.4855337 -2.1624746 -3.1895256 2.4512653 1.3719788 0.4003325 -0.25608554 2.2082894 -2.0397227 2.706274 3.8346314 0.6958139 2.8999135 -2.0803826 1.5531327 2.549336 -2.0253575 0.5276913
agora 1.1705307 -0.19197565 1.8139374 -1.8103099 -1.8464725 0.012530471 -0.31640297 -0.659401 1.1456724 3.4197035 -0.13436252 0.09634851 0.8699545 -0.07472615 1.8660142 0.9791693 -1.0040574 0.17747788 0.92089105 0.5969818 0.7864716 1.0257232 -0.16752142 -1.8101428 1.0327591 -0.8627063 -1.3629893 0.6613561 -1.5097955 0.40212846 0.8790293 0.13335228 -0.6607447 0.81622046 -0.51203215 0.8722119 -0.53694224 0.14989373 0.5152625 0.8005889 -1.611746 -1.3867794 -1.1672269 -1.0147192 1.864732 0.14394078 -0.4022716 -0.35757688 -2.2413852 -0.05918712
snape 1.3547736 -2.6623359 -1.5835245 -0.49094403 -2.8279836 0.63404286 -2.6041985 -0.4559162 -1.1358198 -2.0998917 3.544556 -1.6819631 -0.56101584 1.7465384 -0.72742724 -2.3429759 0.1684178 3.5742214 -1.7278697 1.1472219 1.5306661 -0.8749046 0.25756723 -2.7524261 -1.1251025 1.8026592 0.18777843 0.32929397 0.6063635 -3.6950483 0.38703123 -1.9350079 3.142949 -2.4912438 -3.020344 3.482311 -2.3392694 2.6307702 1.6198064 0.6361984 -1.5391415 0.98142594 -1.427475 2.3705518 -3.7950451 3.0750253 -0.16106491 -2.9846773 -3.4473011 0.14899713
porta -3.0743856 -5.23606 0.8665887 1.5819463 0.21002546 2.1979177 2.0034668 0.49348506 -4.0151377 -1.3926035 -2.19233 1.8496397 -1.4986631 3.114131 -4.0089107 -2.5972083 3.006095 4.6673965 -4.559552 5.7483797 3.1721058 1.0824056 -4.4280195 -0.40860385 -5.6036987 -2.127224 -3.117841 0.4657497 2.467107 -3.2178655 -1.4092984 -1.1684965 -2.4237792 3.1985667 5.6809916 3.4141102 -0.0100964 -1.1104115 -2.42263 0.72639024 -4.569193 -0.5360904 1.8535349 0.9930912 -1.1246836 1.2212347 -1.42326 -0.74500823 1.6276445 2.3462172
potter -2.1791184 2.1360524 -1.8086025 -0.6648166 3.5986805 -5.5253234 -3.0601838 1.2119174 1.9726455 -3.70392 1.0961033 -1.6656533 -2.509033 -1.2640429 0.15802494 2.417251 2.4634492 -1.5462978 -3.2469368 0.851858 0.7759478 0.8866338 2.2215853 -5.4511166 1.7338527 -0.46322352 -1.3646895 1.9647257 -1.5184249 0.10182257 -0.3755613 3.5093458 2.5982354 0.60736436 1.6819956 0.1360776 1.5561935 2.6676724 -3.452554 2.3495321 -0.633825 2.2362895 -0.42663932 -0.73818433 -0.044669 -1.260915 2.4712298 -1.4037521 -2.828915 -3.3033502
já 1.5214493 3.0682905 0.2704841 -1.6413935 -2.5224793 1.131089 0.30075806 -0.61579883 3.4006112 1.0342116 -3.8551962 0.18345545 -1.1446787 -0.4191928 1.423292 -0.4725494 -1.7435161 -2.1675758 0.7128237 1.3980982 -0.25721192 1.2949146 -0.8629465 -2.6287866 -0.6703125 1.7259054 2.1041615 2.4715545 0.993915 -1.3677832 2.2419307 1.793747 -0.6154508 1.597503 -1.7871494 0.70530844 1.0132072 2.9179323 0.7567248 0.49269235 1.2486341 -4.4839334 3.0559623 -2.3232496 0.74791723 -0.18253648 -1.0659801 -2.9262834 -0.48158976 1.3672196
pelo -2.3481011 -0.18083586 0.04022989 0.7754032 -4.2054744 1.569148 -2.5894122 -1.5431188 -1.7330594 -2.1592293 -1.9773054 -2.513299 1.5687149 2.3340313 -2.8526597 -3.8425388 -2.2729976 -0.14951523 -0.911994 -1.4112498 -3.3601296 6.7941456 -1.6997192 2.566108 3.4227314 -6.702979 4.262471 -1.3270729 -0.57942224 -0.91841215 0.48630452 -2.5381565 -2.9378538 2.181215 -4.744315 -0.68443686 -5.390188 -2.983921 2.7299428 -1.1412957 -2.8014903 2.7101912 3.8076673 -0.5241177 0.94054407 -0.25703356 -0.992637 0.22787064 -1.6297983 2.4976966
weasley -5.5180964 0.27433032 2.0359516 0.113028325 2.9035828 -1.162847 0.7010418 2.0229957 -1.2918093 -2.3548062 1.1962748 4.0852456 0.043506224 0.14511354 -2.952079 4.696861 -0.9305377 0.83992994 -0.15448967 2.7987852 2.7383826 1.036407 -2.2348542 -2.6669507 3.16676 1.9698998 1.1722797 2.7062426 -1.969264 -0.9165287 -3.380193 -1.3483576 -2.3783903 -0.18499514 1.4696276 1.7200215 2.2787337 0.18060939 1.6363353 4.417389 -2.919159 -1.901089 3.0086353 -4.7060885 -2.6616843 1.831887 -3.0053368 -3.6059055 -1.675561 -1.0693196
parecia -0.024017634 0.13848566 3.6035202 0.24967055 -2.1211526 -0.0807117 2.0927277 -1.6113479 -4.540097 6.496597 -0.6664613 -0.33873105 -1.1121954 -2.5922441 0.8620552 1.3318869 -0.866462 -3.7201147 1.307835 -0.14021403 2.445508 0.7880066 -4.0390315 -0.632463 -1.5607527 -3.3581662 -2.1687706 -0.4524378 0.047281533 0.5098204 0.28302968 1.1653881 0.8456837 -3.585922 2.7882717 -5.822505 -2.504708 0.9358148 1.49876 1.0746216 5.3154826 3.8480453 0.24727549 0.74657834 0.08184759 4.937352 3.7662122 -0.29387176 2.6682947 3.323205
dois -2.549006 4.3497114 -1.3692223 0.72059274 -0.45463464 3.4668624 0.48249996 4.4299293 -0.7992739 -2.3039176 2.5972354 -1.651595 2.5470085 -2.440499 -0.8078276 -0.22908589 -0.017264849 -2.3613377 -2.6694653 2.2782764 -1.2739127 -0.3690184 -1.3929216 1.0886886 -0.56943506 0.07213684 0.7210243 2.1420426 -2.2157712 -0.928705 -1.7074734 -2.1219368 0.21227838 0.966785 1.2419574 4.1597295 1.0847484 1.1426076 -0.6989322 -0.9370396 -2.4878025 -1.9352938 -1.723467 -0.95650107 -1.1077418 -0.7693617 -3.7222867 -1.1391697 -0.36761057 -3.8571334
fazer 3.1142478 3.1745417 -2.9211965 -3.8495324 -2.329208 -0.034113757 1.7977326 -1.3557993 2.116895 4.9923 3.0657923 -0.7873573 -2.5651488 0.69355226 3.988257 2.282723 1.1742917 4.324596 2.2152073 -1.9897145 2.5322058 -3.4024608 1.0282638 0.41763076 2.2498803 0.8285438 -2.7215865 -3.922032 3.5323176 -1.1137134 0.69238293 -1.0702848 2.3892508 -2.4361382 -1.3984528 0.2905571 -0.63239884 1.6350408 -0.748863 1.0334998 0.21189311 0.56552935 2.2864285 -1.2925935 1.5605322 -1.8297983 0.5530992 1.2453496 -1.8230258 2.7199125
vocês -2.045858 2.57007 0.50119007 -0.3883423 -2.0867496 1.779609 -2.163867 3.1155434 1.4359138 2.104696 1.4495244 0.21417926 0.509675 -1.4666712 5.3865848 1.5569252 -3.5706801 1.6830444 1.3435032 1.9634764 -2.1773887 -0.30958736 0.5927059 1.7176424 1.7905635 2.376244 -3.400793 1.1397187 4.4783053 -1.6952769 -1.4404392 -2.1435914 -3.209867 0.54668176 -0.996936 0.39205164 -1.0755069 1.6529698 -1.7684971 -3.4348283 1.0883194 -5.15364 0.47115532 1.7979707 0.2671429 1.390068 1.3235981 -3.1018813 -3.7885537 -0.6853046
nada 0.060870927 -1.9782853 0.8307572 -3.547332 1.1422967 0.8509434 -0.5290012 -3.003252 -0.67412174 3.521473 -0.80390155 -0.9454022 -1.648933 -2.980399 2.0432966 -0.82758445 -2.2930598 2.8233407 -0.41259208 2.8252206 -3.9632 0.46735984 -2.235859 -3.7032547 0.33259177 -0.059766144 2.1576195 2.8203766 0.12786232 -0.7510336 -1.262096 1.8172306 -0.20495598 -1.4040835 -0.8404695 -1.9028951 1.0639757 1.2911377 -1.8173002 2.7758052 2.2898114 -0.7195207 -1.794937 3.825277 -0.65336585 -2.9732027 0.74536574 -0.09103969 -1.6863369 -2.988617
lockhart 2.8849862 -3.1870503 0.77306354 0.5270179 -1.3970889 -1.2171192 -2.7194083 0.6095237 -2.3968015 -3.9888468 0.82897955 0.54086906 0.38747293 1.6669592 1.1920804 0.1762404 -0.96272266 1.6465377 -1.3115782 1.8635792 -1.3937347 -1.6722021 2.7938564 -1.3072499 0.5889502 -0.7819944 -0.5209945 3.0945008 -3.277486 -0.61330205 3.5148027 1.9144921 -0.63491154 1.7166058 0.33890164 5.2000494 1.2460089 -0.23931058 0.197701 -3.297418 0.7574313 -0.49665567 -0.40762705 -0.21900193 0.55866635 0.6438519 -4.354932 -0.636401 -1.7487155 -1.4656398
voz -2.8949625 -1.1744229 -2.2741725 -0.07749318 -0.24108571 5.950936 -0.050677955 3.4122295 -2.2366986 -4.999557 0.06346172 -0.62179726 -1.9260591 2.6739414 -1.321923 -0.18049578 -0.3906481 5.652939 -4.9668117 2.4925535 -4.3852997 -0.19642338 2.1046305 0.5008423 -4.574239 2.572969 -3.1276562 2.5631602 0.85094154 1.5131009 1.3406475 1.3460768 2.2412379 -1.4762346 0.8943535 -2.3178606 -1.2355745 3.7900763 -0.8064089 2.1282825 4.0964375 -1.111809 7.7782226 -1.289474 -1.0551327 0.27083352 -0.16486368 -2.2253513 0.22436348 2.143322
depois -1.56542 4.0092454 3.298727 -0.7995988 -2.145997 -1.4828094 -3.0351033 0.23829654 -0.07240313 0.5432702 -0.52391016 3.27495 -1.1658987 0.69890505 -4.190672 -2.5777209 -1.6369263 1.800269 -1.9615194 1.3733921 1.3041005 0.75841725 2.439286 3.7628415 -0.053973682 1.3633661 1.6341499 0.58155435 2.2292888 -1.564689 0.15777883 1.3778275 1.8174201 -3.972057 -2.1735978 -0.45986706 -1.1942996 -0.9563392 3.4469764 -1.6271442 -2.382359 0.35823467 0.02866371 -1.9341253 -0.81387466 -1.0537498 0.8690898 -4.432121 1.8381445 1.5605975
dizer -0.47205362 -0.44187206 -1.3410648 -3.7689457 -0.75788164 -1.6499472 -1.22854 -2.1202056 4.331858 2.1311033 -2.1716967 -2.3669858 -4.988273 -0.5538996 3.7487006 1.6753615 -0.2561496 -0.57515466 -1.2553028 2.7401137 -0.7585179 2.160254 1.7300669 -2.0044029 0.887703 0.26192105 -2.653903 0.0023042983 1.1144972 -2.2745314 -1.2177396 -1.3033229 0.79490495 1.4413395 -0.23213093 2.1689806 -1.0568377 0.030336712 -1.2196343 5.8155303 -1.990722 -2.5311232 3.697392 -0.35170192 0.0026637954 0.50059915 4.0159807 0.27667236 -1.9293196 -1.6401824
todos 1.0555191 0.7426626 -0.9344827 2.7063413 -1.3125665 0.7414196 0.73600364 0.9361411 -1.7528996 1.1442255 2.3911436 1.4060463 1.9401865 -0.34119585 0.9514981 0.14372228 -0.43234274 -2.0056503 -0.08022008 0.74808174 2.1399176 -0.72351 1.3557527 -0.63029325 -0.07106026 5.373424 -1.8592182 3.1011026 0.72028023 -4.428895 2.4687748 -2.2342048 -3.1988683 1.2543738 -0.99596894 1.5504134 1.2915761 2.7307606 -4.10139 2.2681506 -0.7066438 -0.08848921 -0.387306 -4.341079 1.0098526 -1.3231088 -3.5287113 3.750576 -2.040383 -2.523589
lhe 0.020762425 2.3724723 -0.68615067 -2.2251859 -0.36596835 -1.9401441 -1.4561276 -3.7873652 1.9022299 0.78347754 2.7743871 -1.0758042 -2.5819433 0.069965735 -3.3865345 0.6858414 -0.7950905 4.865877 1.6579844 -0.6540118 0.6665327 -1.7675995 0.5555693 1.6670775 0.27017683 1.9181148 5.258631 3.1656625 1.0380906 1.4545472 0.2963007 -1.1664243 -0.6340378 -2.097447 -0.04490306 0.19347717 3.6414094 -3.291741 0.61661035 -0.80622053 -0.80556107 -0.50900316 -1.2670364 0.065453954 3.0828729 1.8963413 -1.1132103 -0.21356018 -1.9589121 -1.8544996
vamos -0.8883285 1.045728 -0.1304177 -0.6578447 2.2695467 -0.6146857 -3.4166582 4.380729 -0.8263077 2.2284806 1.8252218 -1.0398487 0.74493176 0.9154942 -0.3735769 -1.2428354 -1.9356643 0.53385246 -0.8293863 -2.0629735 1.6030428 0.21923277 -0.46971902 -0.2360463 3.9920325 0.9009468 -1.8976796 0.68984014 2.7716694 -4.4044595 1.8285841 2.892129 -3.682766 -3.2775614 2.3493145 -4.6324034 0.47001263 -0.7880725 -2.1606674 -3.1873622 3.9089916 -3.7468514 -0.13144471 -1.9923681 0.2487533 1.5974001 3.505157 1.4651629 -1.5326244 0.36388847
nunca -0.06281877 6.175318 -1.4098284 -3.2762065 -1.6333276 0.88697565 0.17010237 -1.3796448 1.8847026 -0.7798099 0.694942 -0.86559 -1.9693357 0.522755 0.6775109 -1.6091477 0.52877086 -0.5979815 0.35191494 1.4893825 -1.5287781 1.301234 -4.2188525 -1.4689174 -2.6444438 1.7581018 1.8649341 3.5980053 -2.1867328 0.58509976 -1.0272783 0.8826856 1.6079698 -2.0296316 -2.7156239 2.3425987 2.0015323 4.8072877 -0.59052813 3.2276561 2.4993577 -3.1185486 4.1414185 -2.111993 -1.7540773 1.9315119 1.8552991 -3.5698826 -0.93198675 2.9500988
havia 0.6762652 -3.5945675 1.5266757 0.22900358 -5.264645 -1.1257778 0.5384379 -4.098094 -2.022194 6.71114 2.8453171 -5.95918 -0.6013427 -1.4961107 -1.3757919 0.1990844 0.9424383 -4.54952 -0.0615949 3.5393982 -2.2320828 -2.8266106 -3.7029922 1.7894328 4.0110106 -3.162133 2.2228067 2.3122246 -1.7429801 0.36619323 -1.5275332 1.9871581 1.9086888 -2.1475122 0.4029933 -1.8262845 -4.6653295 -0.9417163 2.2779686 -5.4080815 4.7135906 1.557145 -1.6006019 2.6698139 -5.116496 2.2427313 -1.7386303 1.0260423 2.108061 -0.5951079
alguma 5.1450768 -1.9501351 -2.61714 -4.186699 -1.095739 -2.4591367 0.9076687 -0.99935764 -0.9679978 1.1755576 5.2486095 4.197826 -0.8947132 -5.529296 -0.26963025 -1.2244358 1.8375396 0.076816484 -1.1699094 2.193188 -1.8291898 0.9702661 -0.6655793 -5.0635247 -1.3432171 -2.6642663 3.1205373 -3.6323202 2.787103 -3.99876 3.4653387 -5.726624 -2.2298949 -0.12609762 3.1256332 -0.51334196 0.6669984 -3.1978672 2.8060024 1.411275 1.8616788 -2.091657 0.6276669 0.63908035 1.6497017 1.7679034 -1.5678097 2.9603195 -3.724369 0.80204993
seus 0.055613548 0.36588877 3.1684663 4.754483 -3.0715373 0.6936918 1.3010141 -1.4094657 -0.7681315 -0.92562723 4.1297216 -0.4739974 0.559676 -1.6053966 0.29397437 0.65350896 0.90265524 -3.8320541 1.903828 -3.4153025 -3.8950996 0.5424591 0.1861956 -0.6546951 -3.381723 2.0489833 -0.98601305 1.093636 -1.4781123 1.1423018 -2.48066 -3.02621 -3.160825 2.713532 1.2460306 -2.1023285 3.5010374 -0.59094906 -4.427522 1.4111075 -3.0392172 2.9623368 -3.4312732 0.05676384 1.1272174 -4.3551702 -0.89173764 -2.5487297 -0.9973735 -2.5781727
aqui 0.37797567 -1.8520958 0.058134194 -0.30117893 3.4434094 -3.1515007 -1.9770006 4.541701 1.2296512 2.7036743 -1.9718816 -2.333384 1.4669533 -1.8070453 -1.8201449 -0.06974307 -1.4084893 1.7125295 -0.7472969 -2.230185 1.3571752 2.2769206 0.15151925 -4.5276184 0.82204133 2.4382496 -1.938971 -0.28522226 3.9436433 -0.17324448 1.1674851 -2.2379615 0.35006937 0.7895845 -0.4096315 1.2604351 -1.2864785 1.2585212 -3.2338867 -0.013112597 1.0543762 0.30878899 0.06168643 1.203563 0.36460263 1.1441267 0.6837476 -1.4947788 -1.0663002 0.93741757
tão 3.103454 3.0533228 4.7459483 2.3938184 -0.5320587 -1.2988625 -2.4561324 -5.307759 1.8466285 -1.126755 -1.5519744 -0.77115625 -0.7210763 -2.4956381 -0.18850763 2.2839012 2.2291293 1.2268867 1.4844234 -1.386599 -1.5373807 2.1613104 2.9001396 -0.21926218 -0.8377582 -0.78858656 0.50809926 -0.993384 -1.9783919 -1.5823804 -0.22263162 1.8490356 -1.2574444 -1.0878845 6.1026244 1.5822506 -4.9788 1.0554012 -1.6693497 6.6562366 1.2297786 -1.3199408 -2.4673295 4.4465165 4.7092323 0.4709003 -2.2660236 -4.803045 0.50459296 0.7358954
pela -2.6849155 -1.2647464 4.541438 -1.6886464 2.5452828 -1.4675157 3.6762254 -3.028639 -2.2070158 -0.995304 -5.06673 3.3013906 0.62205553 -4.496225 -4.638706 1.4444512 -1.8763552 -4.900597 0.52737004 -0.5308562 -2.5834029 4.8682733 -0.24778989 1.3860067 3.7962916 -0.14220846 1.8835118 -5.9448557 -3.426183 -1.8781539 2.081116 -0.29871082 4.0734296 0.84531164 -0.5381327 -1.2078862 1.2131684 -2.8728077 2.3003628 -3.2759302 -2.291143 1.3371708 -3.9416282 -0.7162165 -0.1805435 -1.7585663 5.078255 -1.8998454 -4.119439 -2.7079768
nem -0.28540525 1.347521 -0.52354133 1.0599239 -0.04639096 0.12230825 1.3179145 -2.4883993 2.0113783 0.18991026 0.71188796 -1.2998824 -2.4832268 -1.9807893 5.077756 -1.4250612 -2.8187294 -0.29347357 1.9767507 0.9150449 -1.1275798 2.5070643 -2.0815158 1.1601369 0.7490139 -1.3439603 -1.5675073 0.75260556 -0.99273425 -2.6875052 -2.504985 0.30017135 2.967181 -1.5012257 -1.1423929 0.11408829 -2.639255 -1.9830518 -4.3211827 4.712858 -0.21915253 1.2525052 1.1013461 2.812967 0.64205503 2.2250326 0.48440105 -1.1297387 -0.41027293 -1.7387769
dele -0.59313136 -1.4735852 -3.5585363 -0.565325 -1.6508403 1.1487999 -1.5661633 1.7409134 -0.9060248 1.1168667 1.6412495 2.8378494 -2.0074503 -1.2040864 3.6668231 -0.49257192 1.7436112 -0.9410933 -0.74922043 0.903174 2.0028033 2.8149867 -2.245033 2.1372497 -3.469903 0.107571915 2.5124257 2.974185 -3.1543438 1.7508104 -1.0730246 -3.5925162 0.46101066 -2.6338491 -2.2923398 4.427915 -0.08914838 -1.250215 -0.90874696 -0.3020854 -0.8056076 -0.61236733 -2.8043633 -1.354942 -3.7213254 -1.0741982 2.923562 2.1160014 -1.2719879 1.2264768
sr. 1.9495691 -3.3733106 -2.5742526 -2.5350845 3.1259074 0.4489615 2.2715354 -3.3158047 -1.3853482 -3.6533945 3.5027442 -2.5742078 1.0259647 1.4894916 2.6162183 0.6152528 7.0077205 0.5389992 -1.33792 1.2481784 0.60436213 0.7985548 -1.3851126 1.9458213 3.8057315 -2.0566547 -2.2942476 -4.068631 2.632435 3.9413874 -2.2576501 -0.5644472 -3.0774026 1.1403874 1.154843 -0.8077291 3.1510682 -1.7958446 1.888823 1.8063666 6.3128123 0.6576804 -2.4500637 -3.1674297 -0.9287923 -1.993563 0.6859773 -7.7220535 -1.1528089 -3.8348882
draco 1.350098 -2.5573962 -1.1480064 -1.1708158 -0.35562316 1.0262711 -1.6578525 -0.3204104 -2.5473654 -2.861582 3.5685925 0.50979495 -0.11485022 -1.0473155 4.9980917 -1.5445223 1.5758322 1.1381648 0.5956477 -1.7848086 -1.1813852 -0.40134737 1.7432716 4.2646904 2.5011072 0.17723416 1.4333225 -0.93171704 0.33217174 -3.5078552 -0.645646 0.4577761 0.34334648 -2.1478937 0.5016935 0.15768969 -2.1732821 -1.5094528 -0.45812985 -0.15397942 1.2044894 -3.5540645 -2.0077598 1.713299 -1.755788 0.9089982 -0.90288705 -0.012346593 -1.0646682 -1.7567202
fora -5.3281403 1.2500379 3.992564 -1.6601872 0.599608 -1.1998352 0.5746496 -0.09717538 -1.5278813 3.544133 -0.6996195 3.804679 5.1549134 2.450045 -0.9351838 0.34705597 3.7664163 0.981961 1.6245878 1.7632565 -0.573164 -1.7976077 2.529139 -0.06569478 2.8272884 -1.2591755 2.1432543 -0.1719588 2.219982 -1.0497755 -1.9707091 2.9233625 3.5195527 0.8922654 0.07254436 0.28940576 -0.42557493 -0.19169098 -1.3404036 -2.1371164 -1.595194 1.1868335 -0.5560445 1.1113784 -0.29232645 3.3269892 -2.314893 3.6494246 -0.44230807 0.16775633
lado 3.2832108 -2.697687 3.815652 1.2148131 4.627335 3.3401825 4.715258 -1.3723799 -4.04956 1.5762463 -3.4590554 3.94175 -2.96646 -1.7510669 -2.826912 0.45035648 -0.7664215 -1.0401956 2.7304254 4.5612893 4.048555 3.4999597 5.065898 -2.3570974 2.7418907 -3.655084 -3.7867498 -0.09626783 3.1302297 -0.61612314 0.8875006 0.32597825 3.6906555 1.044483 1.956956 -1.0891732 -3.2977965 1.2692375 -2.3931386 -1.6921722 -3.2877622 0.11956976 -0.1054968 -1.5776247 -5.599451 2.4895444 -1.6043383 -2.8943486 -3.7705538 -1.9204317
nos 3.2112331 -0.44712147 1.0309409 -1.7043291 -0.53755 1.6765326 0.13923897 -0.27364463 2.23998 0.69418424 6.5369115 -0.8027211 1.8886167 -2.9318798 -2.1453984 1.7263886 0.02805052 2.3320508 -1.7189952 -3.1209114 -0.6258929 -1.5116324 1.3013492 -1.8941485 -0.31795827 0.41795617 -2.71117 -3.8272102 1.4371388 -1.9138052 -1.0153043 -1.4895538 -0.19219963 -0.57366395 -1.9469849 -2.7688377 1.0248544 2.0551324 -1.4158794 -4.4564075 -0.82669866 5.0585666 -3.9265661 -0.22701961 3.6675658 0.96227777 -0.15575953 -1.4760112 0.32487473 -0.32446834
quase -0.96779996 2.309612 3.5282016 0.32747823 -1.3983834 1.2620085 -1.8888441 -2.3938203 -2.1482065 0.0055529214 -2.7180793 2.2660844 -4.318582 2.6539464 0.69409436 -0.88722533 -1.6499447 -1.2770554 -1.0765089 -2.8851366 0.21717793 -0.07902879 1.9810836 -0.69408166 -2.2996185 1.6213443 0.26007348 0.04477369 -0.8737474 0.38692418 0.2982162 2.8761191 0.35660484 2.6751463 0.9948339 -0.76563895 -0.06496073 -0.75210446 -1.2635334 2.9534323 -0.1671737 2.8137317 -1.2230009 -3.5966635 3.0954325 -4.2439704 3.1110094 -1.8670886 -4.1523547 1.5494405
estavam 0.15952519 -0.24906418 1.8824898 3.0352724 -0.8610252 3.2307699 1.5648983 1.0333978 -0.20003822 4.6608267 2.6542592 1.2486974 4.3639245 4.212278 -0.56286067 0.5077939 3.4997475 -1.0954864 -2.9452484 2.905029 -2.6807437 -1.7204657 -0.88301873 4.004643 -1.4198993 0.9836238 -2.1898692 1.4655098 -3.5220082 -4.1006 -0.83854735 -0.7309476 1.0666133 1.4973165 -3.736074 -1.7403303 -1.5223784 1.3481543 -0.336018 -1.6713163 4.7827663 1.913203 0.8427972 -3.0323257 -1.9081765 3.5331864 -3.680657 4.444065 5.1825423 -2.0278027
mesmo 2.0802515 -1.6459526 -0.67124355 0.5755647 0.33886626 0.43939176 -1.1081748 -3.0371058 1.1343988 -1.6263732 -2.632662 0.37702665 -1.7605263 -1.1296687 1.2123271 -4.1539464 3.6824865 0.6417764 -0.037715796 2.190079 0.042815525 -1.1474066 0.7734731 -4.1921725 0.81111 2.1041234 -3.0205011 1.7281936 -4.5855775 -5.0543466 -3.0893161 -0.32745808 -1.945696 -3.3262322 -0.03342976 0.06251282 -4.9396276 -0.38860926 -3.1189966 3.0913904 1.0314864 -1.0630928 -1.6316195 2.6476705 -2.695188 -1.0899442 -0.8383117 0.91962236 1.6118916 1.2201178
ainda -1.7047591 -1.3807843 -1.3460537 -0.650529 0.30308375 0.7883376 -0.42382127 -1.100724 1.8669276 0.08882366 -0.24232756 0.11100356 1.458247 -0.51163036 3.220139 -0.13917434 0.25525668 0.09732636 0.8484656 1.0840594 -0.6423887 4.534623 -0.5635919 -1.1496373 -1.3303707 -0.14667651 -1.335512 3.460122 -2.7401328 -1.8671466 0.415999 1.5478795 -0.18523684 -0.8038884 -1.0330282 -1.0629596 -1.4745499 0.80993575 2.111966 2.1628678 -2.4386852 -2.9117088 -0.23802723 1.2260948 0.7480347 -0.4511576 -1.202521 1.1344104 -2.5299976 0.7623535
sala -1.6370882 -4.787824 -0.9886079 1.9547164 -5.1224065 0.7207447 1.7976489 2.8621027 -1.0209224 0.758763 -2.0324461 4.2802186 -0.48370165 1.6135465 -3.6849763 -6.165637 -1.2636663 2.547895 -3.801657 3.3299816 3.006261 -0.54691285 -3.076835 4.528996 -1.5640428 -0.28108248 -0.13656883 -2.6555507 1.5292245 -5.053236 -2.2470767 4.7414246 -3.7227666 -0.27934617 -0.67157954 0.65338624 -2.0455537 2.3727906 1.335992 0.23224382 0.678444 0.6554073 5.43022 -1.0644249 -2.512963 0.9807359 0.31888264 -3.6703115 -2.3431537 -1.6107552
tem 1.5285826 -0.9316576 -0.0004635443 -0.84140176 -0.32373375 -3.9670343 -1.4224055 4.669234 0.88361275 4.4226894 1.7343024 -3.8955278 1.3924369 -3.1530228 -1.9273446 2.9499266 2.4407804 -1.7257541 0.6266939 -3.0256553 0.5963213 -0.24030836 -1.1720418 0.55295724 4.533883 1.1410521 -1.3842775 5.8975787 -0.30680856 -0.11528197 1.3768396 2.0088248 1.3877815 -0.40850902 -0.6467009 -2.1421514 1.0116267 -1.9458209 -0.6059921 -1.3701457 3.2129786 1.6097081 1.0889648 -0.24704108 -4.6041875 3.745539 0.24352656 0.34888276 1.5610526 -0.75788325
ver 4.3635488 -0.32612535 1.8056039 -1.9446952 -2.837148 1.5402765 0.21000236 0.36581272 1.341207 1.6585395 -1.0362426 1.0587524 -1.9032329 0.33427313 0.8850837 3.1571321 2.364799 0.91147465 0.4545236 1.0208474 1.4981833 -0.9501456 2.2443957 0.3457257 1.1105746 -2.0936759 0.24426557 0.30934963 0.41614646 -1.6395781 -2.0039344 -2.8444753 1.1142453 -2.0354064 0.21003124 2.7401361 -3.3899953 2.1774242 -3.0413346 3.4001288 -1.6765814 -2.3405576 2.167326 -0.4054149 -1.171948 -1.5201776 0.39786854 0.3214454 -1.1607125 -0.28988096
grifinória -1.9145243 -1.1056148 0.1006133 3.2813313 -2.1778822 -0.19700094 -1.4918914 -0.2925743 -1.1989822 2.8680525 0.1663476 6.405907 -0.5612303 0.7119107 -1.1520886 -0.3683309 -1.6309036 7.448103 -1.917422 -0.3489322 -2.4346862 1.1791078 1.6895176 -1.6141666 1.9970311 -1.3284154 -0.065228656 0.6047704 3.6223433 -1.7410704 -2.0297804 5.089803 -2.8918917 -1.4248493 -0.5385015 2.958049 -0.5738077 2.4688392 0.59907496 0.33105895 -1.3962545 2.5332453 -1.4431983 -1.9814979 -4.220839 -1.7702671 -2.8619633 -4.0423017 4.045023 -4.860492
tempo 4.3862143 -1.6066554 2.5319483 -0.38078046 -3.5834873 4.2323585 -3.0225577 0.4183857 -0.65014315 4.3968806 -0.38627145 -3.698285 -1.2565843 -1.8635107 1.819324 -1.0515381 0.75486183 1.8014929 0.13721652 0.32518983 0.991403 1.1596701 0.82214046 -6.452494 -0.58014226 1.483379 -3.5136843 -3.4747837 3.4538147 -2.6318018 1.1529146 -1.0543983 5.3746524 -3.4223485 1.8243974 -3.9184728 0.35029414 3.0726523 0.7098681 0.4841002 -2.006346 1.1581372 1.7277501 -1.2182395 -0.430111 0.018895227 -1.5425413 -2.8099496 1.3149751 -3.5387936
ah 1.3921835 0.5813447 -0.59606797 -0.7069436 2.3477294 -0.944375 0.31322685 3.1654935 3.5431674 -1.3910877 -1.0387175 -3.539848 1.6483898 1.1837057 3.124939 2.4108546 -1.0260831 0.67514294 -0.576237 -0.41283953 0.47594163 2.9887085 1.997346 -1.3850447 2.3632772 3.1078792 -1.1744758 1.5624475 1.5682465 1.7982913 0.9495383 0.2409349 1.1362278 -0.38421667 -2.1663923 0.046037816 1.4540392 -1.0163381 -1.023057 2.167367 2.5806396 -1.064407 0.9553256 2.4010088 3.6562781 0.87173724 1.9536656 1.3899353 -2.6240458 0.018774949
quem 1.3781368 0.30260074 -0.71929866 -0.019205872 3.6287184 3.4436471 -1.3343897 -0.2929615 2.1504478 -1.8455938 -0.93878776 1.8682942 -2.5732982 -0.21797591 1.3323392 -0.94743955 0.33193997 4.524364 -0.23363192 -2.160423 -0.7777121 0.266025 -1.711065 -4.265446 -2.2549305 0.3045121 1.4890015 2.3069873 0.2637624 -3.906755 -2.6251023 -0.7637451 -2.2740583 0.69638395 -4.8538537 0.8003666 1.9328773 -0.61774623 2.8375168 2.6560297 1.0081074 -0.3682409 2.2356944 3.6494372 -1.7354269 1.5119756 0.7772926 0.22302374 -2.9921277 2.9624197
casa -2.9048085 -3.1130018 -0.9345641 2.1389956 -0.7660322 -2.2975216 -3.9723864 -0.27097705 2.2035964 1.0747035 -0.6965686 0.031933304 0.19938625 -1.8596903 -3.7410238 -2.9342358 -0.0272244 2.5813782 -4.165235 2.6745868 0.3503933 -0.29905817 0.67601025 -0.24969202 0.71255076 -3.3200197 0.8939403 -0.39808732 2.1810844 -0.5917206 -1.4549307 1.5096221 -0.58348835 2.7887208 -5.0565925 -2.8336332 2.6910334 3.7961378 -4.1826754 3.6948414 2.1652858 0.45957294 1.5222198 0.9703478 -1.1566707 -3.8632646 -0.1489267 -1.6702251 -0.75084054 -5.0228963
tinham -1.3503226 3.390122 0.1312198 4.975588 -5.082903 -1.1900768 1.4253205 -3.6209612 -1.1026715 7.1703014 0.92687136 -0.8560261 3.4122903 1.7012618 -8.009276 4.36947 2.799553 -2.448519 0.34500214 4.141873 -1.1283922 -2.6631696 -2.3374333 3.220537 1.2129312 -3.7656016 -1.6124017 7.1029987 1.5420585 -1.8032637 -0.8732203 2.6884031 1.6648952 -1.4797999 -1.4301199 0.20484182 0.3903799 -3.1002676 1.468166 3.9234438 0.6874447 4.8874807 -2.8665276 -4.1014585 -0.696306 3.1539567 -0.81581664 0.04143209 5.7011604 -2.9479113
porque 0.14463009 1.8609428 -0.44156492 0.24245489 -1.3411167 1.461796 0.53807735 -4.395547 3.3131514 1.5367585 -2.4051318 0.42840058 -0.55053806 -4.1943216 1.437145 -1.1700255 0.73397094 0.650726 1.2340866 0.8929077 1.9484372 3.1010356 -1.3131472 -0.61013436 0.3140865 -1.8670338 2.4154549 0.73585737 0.58869505 -1.17102 -0.5609101 2.2982674 0.6027124 -0.48134792 -3.1103313 -1.6757762 -0.853412 -1.6580575 4.9988613 2.7070458 -0.23861337 -1.8482738 0.053012446 0.45408568 1.5054059 -2.226438 0.50462496 0.46171725 -1.8277956 -0.088135585
meu -0.82020724 3.4769652 -4.802323 -0.95188224 2.3428564 -4.758678 -1.2524061 1.5532587 -1.7864506 1.6912435 -1.809919 0.8010725 -2.6624742 0.20507003 -2.0618498 -1.2638634 3.6461892 2.24291 1.8106272 -2.1284528 2.148052 1.4792182 -1.3793008 -4.2139907 -4.8499107 -1.2681067 2.5274413 3.7183273 -3.4156954 5.1898837 -2.3872504 2.716308 -3.0635386 -1.6847063 -0.8250033 -2.976942 0.9873177 0.944328 -3.9325705 2.467651 3.823374 2.1149333 1.1900609 2.4689488 -2.4086106 -0.91880417 5.995609 -0.4428915 -2.9397318 -0.8746602
sobre -0.29275253 2.4244387 -3.7585125 4.7712865 3.1751926 0.5331107 2.7380018 0.25570792 1.9671746 0.3468323 -1.4862905 -1.5770599 -1.9970863 -1.4842792 2.8812928 3.5870209 0.79228425 -0.4259306 0.12745488 -1.2012814 0.045097902 -1.7226036 0.17949827 1.6865019 3.5836341 3.5702517 5.1626043 -1.4372144 0.9832433 -0.58623236 1.3966235 3.6447372 -1.3739481 1.2639673 -0.5329027 -0.36329862 1.3038648 -0.55799663 3.906737 -3.818708 -0.10986306 1.9527963 1.6861906 -7.226857 2.1107767 -0.99866664 0.3256198 0.64706475 2.8222144 1.6985742
onde 0.131657 0.8824701 0.82985234 4.1345882 4.5402074 1.2685188 0.484568 -4.2407207 1.0759103 3.4132614 -4.974599 2.9704232 -2.6274896 -1.2280798 -2.2539642 -0.76804525 0.24123889 -0.75558555 -0.38688135 -1.657451 4.2417526 2.0538785 -1.5708475 -2.7342012 -1.9170046 2.878178 1.2388546 -1.185932 0.7927292 -2.1630778 -0.06400027 0.08250725 -1.8210001 2.030152 -3.9056952 2.2367337 -1.9982815 0.37025648 -2.6640093 0.5351481 -1.7721359 1.6464065 1.0353585 -1.78201 -0.78078043 0.19531675 0.07657804 0.7698379 -2.7370846 1.4858522
enquanto -0.84491223 0.44679353 -0.79077333 1.2371486 4.8855214 4.1406913 5.008787 2.6777492 1.1693339 -3.1894977 -1.2568233 1.1574732 1.2548887 -1.2229639 1.2967814 4.319995 0.7139828 -4.4904733 -0.9662787 -0.43813336 0.7708194 0.14548399 -1.7046293 1.6076353 -3.293384 0.47194788 -0.16326392 -1.3162333 -1.1096048 0.31095725 -3.5457761 6.2175546 1.3013219 0.6143179 -2.5329003 0.2829232 -1.4150469 -0.43454817 1.8612728 -3.187538 -1.0061797 -1.3079168 1.0373358 -6.7421813 2.5320575 1.0013844 3.2547226 -2.4324167 -2.3682253 0.722259
grande 0.83281934 -0.48437652 0.6772549 2.7411911 0.53731835 2.6101983 3.3822708 3.3805053 3.3891325 -0.7158629 0.7056903 0.76504797 -2.4797812 -1.5855668 -3.4287193 0.46666613 0.05152264 0.23422699 -1.0563097 4.526356 6.3681464 -1.3390851 1.3061832 -0.7812511 -1.431378 -3.0820239 1.2061089 0.4143292 -1.5851513 0.8305286 -1.2786034 -4.506293 -2.4235814 -4.064517 0.7988571 0.49395117 1.7097782 2.0142684 0.80878067 -0.29845256 1.5718423 -2.5804992 0.88491786 -1.9019078 -1.9997861 0.19660234 -3.586855 3.174441 0.29270214 0.56213087
varinha -1.353057 -3.4577487 0.20134018 -3.8392296 -1.9441243 -1.0278095 2.7229161 5.0269356 -1.7167275 -2.7306259 -0.6546892 -1.3825994 -4.712847 1.0055331 1.9036926 1.7569017 0.024090486 3.716112 -4.0697603 4.1828747 2.2819734 -0.6872608 1.0334105 -0.20091377 -1.3970647 -2.1186662 -0.26292735 0.9688205 1.3848915 2.149033 1.9034352 1.3007693 1.5042593 1.8997695 -0.9812006 -2.1264365 1.6840304 1.7566936 -0.13500395 0.09141982 -4.2422132 -1.8685333 2.0556102 -1.4886029 -1.9714004 -1.4338185 0.8310131 -0.5130061 6.0962644 0.54365313
hogwarts -0.21788414 2.9203744 -1.220738 2.92686 0.13105524 -3.011408 -1.3217859 -3.0426302 2.4201474 -0.74888986 2.0991275 -2.4415078 1.8242811 -0.60112005 -1.345733 -0.10834636 0.19977698 0.6334108 -1.4519275 1.6498212 -2.6864421 -3.5448177 0.4038055 -3.6123066 0.19350708 -1.6606486 -0.021736244 -3.5738559 3.2752512 -1.8746036 0.58201927 -0.7745066 -0.1110861 0.83673894 -4.1470976 0.27795526 2.5458393 2.870079 -0.34399563 0.6103406 3.3230488 -2.3511438 3.8914027 2.0645268 0.0071687046 0.66924644 -1.7659751 -2.0199876 -0.9526504 -0.46332985
escola -1.3895345 -3.1360822 -3.5692024 0.035640072 -4.4218955 -2.0541453 0.422327 -1.2989138 2.019007 2.211556 2.0220711 3.478232 -0.293975 2.1199596 -1.8418312 -1.3849525 1.0652876 5.1323195 -1.3681953 1.6655451 -0.8266321 0.6037766 -4.673988 -3.6794848 -2.0536957 -3.1734645 -1.5747485 0.56875974 3.9695354 -0.73938906 1.178494 3.1537912 -1.457485 4.224014 -4.938753 -0.28526613 3.0256982 4.8538504 -1.61971 -0.23674645 0.7018339 1.0913529 4.3463845 -0.28152546 -2.1915276 0.095356286 -1.0343716 -4.104006 1.620518 -0.71818125
duda -0.77813834 -1.6253732 0.43318954 -2.3115304 -2.404046 -3.1650689 -2.6032722 -3.121777 -5.5584483 -0.1436211 3.6849408 3.3744946 -2.3014352 1.3154739 -0.7698636 0.0019601556 0.49238604 -1.5333394 1.1231766 3.9278774 1.3537499 0.17046899 -1.4011176 1.5512995 0.21520187 2.2232203 1.1170944 1.133016 -0.31230834 2.451677 -3.4664972 -1.0123001 0.3373653 0.49907124 -2.9093695 -1.4302273 4.2398605 3.361263 -0.35309845 -0.7512489 -0.005661656 0.71829987 -0.5510031 2.2906852 -1.1843517 -1.598998 -4.587289 -1.0013978 -4.270078 -2.3961358
malfoy -0.82002795 -3.5151212 -0.35071808 -3.8019025 4.822318 -2.3059623 -1.1396643 0.12899403 -2.1985471 -2.501798 2.5785213 1.9550887 -1.7541528 -0.37894043 -0.32810307 -1.0082378 3.3130462 -0.11689774 0.62801754 1.6116555 1.9565841 0.21016042 2.7013726 -2.3397815 1.4086007 1.6695116 -2.1361423 4.891214 -0.2878313 -0.25339404 -0.2146615 -1.1124328 -1.2716076 0.18730879 0.9577559 2.7721734 -1.0720426 3.1178076 2.4693372 1.2298143 -1.7108161 -3.1402335 -1.1880043 -1.3504034 -2.5162132 3.8944266 1.6649015 -4.2301025 -1.9718608 -0.12493497
tudo 1.4569404 -2.7230515 -1.5121232 -0.9291717 0.8836084 -0.48208988 -1.4152863 -1.2234359 3.3632226 2.3447533 1.4830345 -3.082431 -0.19499011 2.5510907 3.9660356 -1.4126858 1.6296109 2.365724 -0.6511134 -0.41277078 0.51599926 -0.84092027 -3.1489015 -2.877896 0.04738376 -0.55862254 1.5847067 1.9985607 -0.89309996 -2.7596362 0.18498531 -2.161406 0.6138944 1.9275792 -0.58639747 0.4670136 3.1082034 1.9474025 0.75924027 0.31392547 -0.4410907 -1.2251955 1.3229489 2.629257 0.32375965 -2.6249616 -1.6495278 -0.12898393 -2.9500735 -1.1080798
antes 1.2537802 6.0698247 0.6236419 0.43977094 -1.3851953 -0.8790062 -1.4878131 -3.632517 -1.5473057 0.6018227 0.13111827 -3.017154 -2.0277848 -0.33815897 -0.543683 -2.1785035 -1.0566231 -1.5549041 -2.148701 -1.8422242 0.1875599 -1.6069181 0.1141644 0.15086511 -1.7884606 -1.999757 1.8083042 -0.3257221 5.4229984 -3.31436 3.0513723 -0.5805824 3.097271 -2.3336797 -1.5418354 -1.6299564 -1.4497926 1.49587 -1.7402837 -1.3673661 1.3083653 1.716014 2.8857777 1.572507 0.44946036 1.6333665 2.2965171 -1.9662174 -0.23199496 -2.6907423
viu 1.5851371 -0.21506047 0.56315386 1.368672 -1.632291 -1.6587948 2.2936888 -0.139389 0.7754506 -1.1528296 -0.570508 -1.5522149 -0.3860854 -0.5743247 -1.5023266 -2.6069992 3.0796783 -2.3646169 -1.859845 -2.0328758 0.42792773 0.43524647 1.1418732 3.52391 3.0915647 -1.6384004 0.067850076 -0.43963438 0.054536268 -1.5879812 -2.9334605 -3.0755007 1.0078163 1.4500947 0.5436202 -0.2745872 -1.4447054 1.1282494 1.2547985 -0.45912135 -3.0136454 1.3912148 -0.18839522 -0.26974177 -1.8734417 3.2985084 -1.8201196 0.32844248 2.659271 1.1622696
senhor 2.1741986 -2.0581796 -1.4667407 -0.89530194 0.3454568 -2.7190747 -2.7204206 -2.5847735 2.3169045 0.6316108 1.6284112 -2.5342948 -3.0645895 0.67703754 3.2506764 -0.23179758 4.368997 -0.33399683 2.3361368 2.5610259 -0.47189638 0.13411637 3.2227879 -6.035535 0.2747061 2.7631402 -1.9651555 -0.72229046 1.7446864 1.874784 -2.0354335 3.4368393 -3.5922606 -1.9736915 -0.4738194 0.79386824 2.7655737 0.39621595 -0.81919855 -0.19876967 1.2919896 0.15969338 0.64314514 0.7652576 -0.024690706 -0.98382163 5.6979938 0.21491238 -1.8492017 0.3638242
sabe 3.7842138 -0.54993534 -1.2243837 3.0812395 0.21537599 -2.8689804 -1.0432924 1.7051846 2.2126982 1.9880291 -3.03432 -2.5687573 -0.6234282 -3.7112195 -0.52717733 3.4308443 1.8492173 0.27289197 1.1253 -3.0943835 -0.9535102 0.44679895 1.0616279 -1.2420381 0.85261804 2.463802 -0.67589307 3.4318562 3.120574 -1.9603128 0.10261947 -0.37762544 -0.084219724 0.24463111 -1.8390774 -3.7838917 0.38690248 0.24961853 0.24303903 -0.7971238 2.2803926 2.2976103 2.9410365 0.5809634 -1.3203598 1.1878399 2.4434202 -1.9432172 1.0283228 -0.77077407
outra -2.2198896 1.6951094 1.7280532 -4.1036167 -2.2463264 -2.3416069 -0.79355276 -0.16848208 0.74089223 0.43120983 1.8773897 5.8234696 -2.7268636 -3.356047 2.4129877 -3.7602038 0.72994727 1.5816039 -2.4919314 -0.62726885 -1.5767583 -1.0202234 1.9209385 -1.5220985 -0.8644247 -1.4532225 2.8823247 -5.003647 -1.0326103 -0.9271654 4.266809 2.278816 -0.5700668 -1.9856098 3.475895 -1.0699425 3.04818 -2.9288137 -1.2344831 -3.3531125 -3.9826543 -0.3721347 1.7376333 0.11797819 3.3835332 0.19456804 3.2292953 2.0435832 0.6657664 1.8956325
também 1.101631 2.5555093 -0.12876837 0.15482225 0.79541594 -1.5660977 1.6662654 0.35079947 2.1902988 0.4409301 1.6573341 0.27096114 -0.43279368 -1.0026544 2.4871216 -1.546474 -1.8722272 0.54605466 -2.5066662 0.42374203 0.006822887 0.6520018 0.7241349 -1.7817367 -0.0637328 -4.3325124 2.805236 -0.21155958 0.3412245 0.54510194 -0.9272951 1.0914636 -0.99994797 -0.038675748 -2.4900122 0.2815661 1.0712955 0.25784376 0.80147344 1.9591403 1.6775205 0.54462343 -0.9649944 -0.4803749 -1.1922917 -1.5071822 -0.84099126 0.15668446 1.0167813 0.103173174
rosto 0.61306953 -1.3086149 2.8364847 5.3176394 1.3537624 0.90025526 3.2195976 -0.5223183 -3.2001126 0.6914826 1.521314 3.0891995 -0.24233073 5.095513 4.0159645 0.33512285 2.248096 -2.1044447 -1.2834574 3.233159 0.20196661 -3.7390404 4.5043197 -2.40388 -4.588323 0.5659535 -0.85069597 1.4923685 -1.7861806 2.379917 -1.3404746 2.4111743 1.1071767 -3.110811 2.9548597 -4.708867 -1.2326049 -0.25070402 1.7801596 3.3317015 -2.379395 0.2458653 1.057673 -1.5611125 -0.5424976 0.87459606 -1.0461072 -1.821432 -0.8925926 2.925923
profa -0.23826012 -4.9533434 -0.10957051 2.2993884 -1.7438841 -1.295696 1.1612234 1.6195412 -0.8081335 -1.9201373 1.5097824 -2.2018883 -2.1864762 3.6902957 2.606328 -0.23102309 -1.7517694 6.9862204 -2.2680266 2.8131015 2.2180703 -4.8578196 -4.1266084 -0.3452385 -0.24653463 2.511408 -5.131185 1.0240743 -2.3256414 -0.26817453 1.9999086 4.0277543 -3.2632189 -1.4332641 -1.9832354 7.130021 -1.2068217 -1.3643906 -2.4806602 -0.80209035 2.2842855 0.45108977 -0.5480149 0.8646605 -1.7709908 -1.057998 -0.93455845 -3.4312065 0.07517137 0.08732381
ou -1.6365228 2.7883008 -1.3329941 -1.8190646 2.2384732 0.055488814 -0.60106915 -0.50865436 3.1539824 2.667504 2.7523165 1.8263879 -1.0227712 -2.609967 1.6203066 1.246742 -0.6090238 1.9729767 5.0386977 -0.057845425 -3.2267292 2.9547634 -2.5319972 -1.5044373 -0.5852673 -1.1813508 -0.6899865 1.6756744 -1.8893178 -1.2340893 -1.2299588 1.7988396 -0.5346621 -2.0456753 -2.4696128 -1.3754164 -1.3124753 -0.34858125 1.762951 -1.5616702 -1.1232914 -0.5240061 1.4537435 -2.6128397 -0.46511555 3.565134 2.184808 -3.0998433 -1.6681391 2.4841592
alunos -2.1170015 2.9720244 1.2207977 3.7513251 -2.827362 3.8501368 -0.06564055 3.7234256 -0.66041225 1.929051 2.8475378 2.8497043 2.8394372 2.6380188 -4.1764894 -0.29542542 -1.2464402 1.7553254 0.24496293 1.6030731 -1.0520483 -0.56932694 1.3101383 -1.4769689 2.1828454 2.7083993 -1.9341908 -2.1883187 -0.045565028 -5.8459024 -0.79355645 3.6743643 -0.964892 1.2554044 -3.4840894 1.4547281 -0.021866202 -1.4550475 4.341587 -1.4790412 0.20889406 -0.60227937 1.0555234 0.07377648 -5.0726943 -3.068979 0.22698331 -0.7529921 -1.6386942 -2.5954065
tio -0.259107 -1.1170862 1.2389723 -3.8324666 -2.3581798 -5.129303 3.5833051 -2.3378 -4.480424 -4.0052543 1.9246294 2.9902282 -1.1224207 3.5656557 -4.15078 -2.5292978 2.045816 1.1728735 2.2188745 7.153147 4.6325693 -0.6440319 2.5696323 -0.44084606 -0.18870828 6.501511 -6.256369 -2.9567137 2.6352727 2.412234 -2.1592793 2.7904382 0.7892099 1.5971727 -1.5207912 -2.2352443 5.7728825 2.9464443 -3.2160313 -0.07344464 2.462954 0.102686375 0.74420667 0.49449143 1.8038404 -0.52327615 -2.591717 2.74123 -7.363794 2.5731905
todo -2.0123024 -1.6082824 -5.85265 3.49093 1.044851 -1.4086349 -4.9638395 -2.018775 -1.5397592 -1.7579179 0.64581555 1.2208574 0.20896906 -2.1586237 3.7051075 0.7631982 3.6576986 -3.5466077 0.26829484 -2.8325856 -5.4136453 -2.1215432 -1.6240108 -3.8401937 2.1430583 -2.3810165 2.9088933 0.40777928 0.26024124 -0.83427745 -4.4466553 0.10797445 -2.460933 -1.2175186 0.54704815 2.5384886 -2.6784189 -1.4601071 -1.3400282 -0.87361825 -0.04889054 2.0489528 0.8326146 -1.194592 -0.59241766 -0.3702245 -1.5852205 -0.8364515 -2.5944037 3.73614
volta -0.18684526 -3.5324056 3.758808 0.6636312 3.0934606 1.4819698 -0.62197953 -2.5385466 -3.7115238 1.0964569 -2.648522 -0.66374016 -1.4875801 -2.4923542 -2.1042337 -2.592408 2.3711646 3.9239807 0.057667684 -1.2116851 1.3304914 -0.9050847 -1.1369488 1.0981852 -0.33616844 -3.121859 0.23512897 -4.2454877 1.1899785 -1.7113018 -6.2340264 0.35162497 -2.2748108 3.3301287 -2.1242661 -1.8052754 2.5007915 -1.6974347 1.3367512 -1.9511769 -1.9257544 -3.78559 2.2055526 -1.0113491 -2.7295547 -1.1298355 -0.39080727 2.463678 -0.6701851 -1.9850745
deu 0.61992633 -2.8042095 -1.1730291 1.2027233 -0.010305563 -2.9734468 5.4867425 -0.14554746 0.5149859 0.3180201 -3.4602282 -4.840696 -1.9721056 0.1638299 -4.2378263 -2.8832784 1.0602211 0.7343488 -0.7004674 -3.253358 0.9273657 2.1228569 -0.76738065 4.779066 -0.13565582 -1.0238208 -2.3710508 3.4303524 -0.4138021 3.4968908 -3.3496811 1.1702622 4.13989 -4.3049026 3.5468404 -1.0525783 0.99986416 -3.7285593 0.6756191 0.49161324 1.1699741 -2.9822395 -0.8139215 -0.24925332 -5.3916693 1.0161942 -3.1622374 1.5426657 0.08327471 -2.8495605
chão 2.4412134 -0.35510752 2.2184637 -1.0918628 3.1863086 0.18075934 2.7963824 0.7694309 -3.6074958 -0.29993773 1.9100189 4.262714 -0.6807089 3.2823818 0.2435245 0.5070713 6.846246 -0.5938928 1.8062117 4.3445187 -1.0329832 -6.986506 -1.150123 -0.7076795 -3.1025484 -2.0099857 1.4170976 -2.6140652 -1.5674844 -1.236456 -0.7458617 -1.5214512 5.268604 -1.3360082 1.2264594 -4.008106 -0.8229065 -3.3961947 -0.39396667 -4.4485903 -2.303668 -3.7944663 -3.6822116 -1.6707968 -1.7473732 -1.7508029 -4.0397844 -3.2474058 1.1373035 3.8607152
lá 1.5328677 -1.8130231 0.09200719 0.36899456 -0.75896215 -2.0574384 -1.3788009 0.29785168 0.8481778 -0.102058746 -2.1690853 -0.199436 -0.65479004 -0.19379234 -0.11940262 1.5054498 -0.48278633 -1.485297 -1.4008243 0.5659504 2.870491 1.9729365 -3.6673734 -1.4370766 -1.7612268 -0.6993686 -1.1378875 0.92909765 0.2671084 -2.0866992 2.0453765 -1.9133686 1.5215994 0.10195248 -3.4638813 1.0075958 -0.80218875 1.311306 -1.9169452 -0.18060113 0.066401616 -2.580587 3.3747475 0.23652594 0.031103816 -1.6404289 -1.195577 0.68405855 -4.8357396 1.3204398
mione -0.21269664 -0.21655668 2.6912253 -2.5378733 0.34733856 -0.87242377 -0.59612525 0.0035230084 -0.9664558 -1.9480518 2.3348389 2.4854093 2.8250322 0.5829302 -0.1975222 1.2124807 -1.9997469 2.082162 -5.124758 -2.8555415 0.8274733 0.52392036 -1.1846893 -0.7014564 -3.046893 -1.7046139 -1.6326872 -2.2801845 2.2332857 -2.9190974 1.1300561 -2.383668 3.022595 -1.6502768 -0.43062624 2.0693815 1.9720072 -0.7421648 3.0574431 0.930467 3.1610658 -0.60867095 -1.0529884 2.7321837 1.3407798 -1.1539956 -1.7482802 -2.2057705 1.1440618 0.41203418
válter 1.3607693 -2.5114987 -0.0044218716 -3.540662 -2.257398 -2.2111237 2.5304744 -1.8843812 -5.2120132 1.1459799 -0.96546197 7.453158 -3.7089944 0.9156187 -2.7840993 3.740422 -0.6952388 -1.0842053 -2.5830655 2.9982646 1.9684165 -0.22292124 -4.423418 1.1206205 -5.964732 1.8112938 -3.3328831 0.6581261 -1.946264 4.636902 -2.574 1.2497275 -1.9796584 -0.30590364 -0.89028275 -2.6207895 2.4781818 0.7141815 -0.45844725 -1.8670454 0.8283197 -2.866787 1.4237665 4.107194 2.5084374 0.89284885 -3.0969343 1.5503196 -4.4120164 0.32432532
mão 0.10613843 -6.4294662 0.7549695 2.9978952 -0.36088878 -1.3731265 -0.115006745 2.3758156 -1.6672689 -2.9890213 -4.699009 -1.5177584 -3.9694188 2.3899672 0.86657697 0.016623806 -0.71188164 5.877333 -1.5968068 3.403979 -1.0447428 -1.8590485 3.4098282 4.174664 -1.0152867 -4.083939 2.3721657 -0.21809335 1.3092673 -1.9711697 -0.44016623 1.1089231 0.517515 2.6077697 2.4159174 -5.0215774 2.5695558 0.28875786 3.6879783 0.8964363 -1.5372487 -5.800682 1.517591 -3.0207372 -0.12206244 1.7508866 0.4817388 -1.7830554 2.3621156 -0.49487206
cima 0.510836 -2.6665754 2.0253303 3.1369247 3.8281474 0.1073369 -2.6113431 2.96637 -2.716649 1.422952 1.1024175 0.65577066 1.9910522 -1.3661208 -3.7705712 -0.5939571 3.7106705 -1.2293481 -2.339609 1.3381624 -3.9053984 -2.0257146 4.609973 0.15548998 -1.4180183 -5.680737 0.94757426 -3.8048975 2.5181088 2.91429 -2.3212159 3.783262 6.1746535 3.0989842 -0.029656282 0.02046367 -2.4647841 -2.4603486 1.935442 -1.883568 -3.1738763 1.1395049 -1.0714672 2.3261442 1.3057837 2.1498773 -4.745365 0.2110873 -3.698439 -0.96936065
vou -0.65172154 0.6970621 -2.5435264 -0.22566985 3.160783 -1.9182602 -1.8028989 1.5335479 -1.9594871 3.6069465 0.456498 -2.512473 1.5504396 -1.1214502 -0.13272291 -2.3515687 -0.5195457 2.87209 1.2288107 -2.3540134 2.9399085 2.8224432 -3.4409165 0.012989631 2.326031 2.498053 -1.8700969 -0.053979844 4.7679343 -2.0313709 0.017378904 2.6911764 -0.835968 -0.1510243 0.90303695 -2.0065932 1.4302338 -2.3206127 0.08008804 -3.0548491 5.9636054 -4.082796 -0.8451542 4.0503917 -1.1222444 1.7639481 4.757624 0.08961444 0.8033959 0.11889676
dia -0.15021092 3.0281403 -4.0468597 1.8032175 1.6849556 4.072134 0.8428959 -0.52083445 3.0653834 3.3019428 -4.560947 -0.70297045 -1.2457268 0.9601973 0.14209437 -1.7216537 -0.2446605 -3.44651 2.122551 4.622814 -0.8495193 2.4038353 -0.9836025 -3.0515475 -3.8547044 2.7976189 -2.1866355 -0.16047941 4.9241138 -1.1209711 -1.8733944 -1.2945411 3.5587618 -1.2396071 -1.3719428 -1.766962 4.5664563 -0.29184535 -0.1254945 0.68471575 2.2005756 -1.1232054 0.3065493 0.24745622 -0.97219276 1.6117069 -0.18251668 -2.650575 -1.2836939 -5.238188
alto 0.76150554 2.2633052 3.9742768 -0.89099497 1.9452019 0.09069382 3.210357 0.58374125 0.2406971 3.0087287 -0.6234075 2.094937 -1.3813823 6.6118927 1.2211583 -1.5316322 1.0433238 0.3797855 0.24724361 3.5081367 -1.24652 -0.75142896 0.7581245 1.3973045 -4.412244 -0.9747018 -1.2440577 -2.253997 -2.2940562 1.7627666 0.91269 1.4690988 0.40583614 -2.6177497 1.4561951 -1.6682736 -1.8799719 -0.5438314 0.23932634 -2.4010289 0.30782273 -3.3535936 -1.6670349 3.2221014 0.14563715 0.063426755 -1.8101892 -1.2666007 1.2477429 -1.4193528
dobby 0.79843926 -2.2271955 -0.91142064 -1.5918196 -0.7811541 -0.21946079 -2.5718932 -1.813407 -1.9745419 -4.9586525 1.7760211 -2.4174185 -1.0562222 3.8873932 -2.1998985 2.322713 2.1745007 1.7775077 -0.6637243 -0.02350606 -0.05415378 1.3347929 1.990567 -3.756365 -1.8113755 1.6333541 2.1709838 -1.6088839 1.3982228 0.96557385 -2.1022453 -0.2822559 -0.23174438 -2.5336998 -1.2958312 1.0645213 3.3202608 0.14646833 -0.924369 0.6901763 -1.6189053 2.7937193 -0.4455444 3.1251552 1.076733 -1.1735317 1.6577489 -0.8209746 1.0524796 -0.6397045
neville 0.1332816 -0.82616997 1.8974557 -1.8779118 -1.5978723 -0.51137197 -3.5817742 -0.14320906 -4.275043 -2.8514683 -0.6504317 1.5492815 0.5222554 -0.5834401 0.076106794 -2.4798675 -1.424068 1.4414515 -0.2585567 0.9345952 1.1911397 0.15244746 1.7710153 -1.2386293 -0.40101638 -3.169339 -1.0820653 3.0908833 0.25374675 -2.8573432 -2.398112 -0.46336284 2.1889248 -0.22542079 -0.7258362 1.3490361 1.8780686 -0.8767535 3.6673963 1.2225602 -3.3236966 -0.796506 -2.527928 0.96501744 0.072366774 -0.4189454 -2.6180694 -0.037125748 -4.1246905 1.3238838
respondeu -0.049498282 -1.7710342 0.64655197 0.6685709 1.3629316 -2.2330441 -0.18565254 -1.979393 1.205999 -1.3745475 -3.3865576 -2.1743715 1.2149497 -2.7432196 1.5316427 3.0753934 0.89742845 1.9733468 -3.2985864 -1.2090759 -0.47116938 2.2800593 2.5395916 -0.090624146 1.7133605 0.22422852 -4.0657372 3.402746 -3.173898 -0.03398077 -2.301543 0.89050704 -0.5583197 -0.07198201 1.7861294 -1.940567 0.06639867 -2.6682072 0.23773348 1.344846 2.7298107 0.31058702 0.97816306 -2.359975 3.5811915 0.31035757 2.6083188 4.8723903 -0.070852086 -2.2948635
melhor -3.2868443 3.8184886 -2.3970308 0.0374649 0.99890167 2.5775554 -3.4299886 -1.409057 1.4699899 -0.3786515 -2.4961894 3.0272408 0.42342392 -3.1466599 2.3862205 -0.013161906 3.0188596 2.2401216 -2.1061182 -2.2247822 2.4131277 0.32235357 -0.0264671 0.4407539 -0.0018887747 -0.09697411 -1.0780768 0.3330335 1.985116 -4.6681685 1.8253381 -0.7530917 -0.305344 -2.468379 -2.3442001 -1.7242694 0.23880509 -0.62428296 -0.8131298 1.1034794 3.8944852 0.06315279 -2.0348418 -0.4637376 -1.1192403 -1.2034383 3.975969 0.3004421 -3.6823869 -1.434227
ficou -0.58778745 -3.3198588 3.2254963 -0.6326037 0.7695452 -0.7890144 -0.92786175 -0.9835971 -1.5867081 2.5190396 -2.0529175 0.2234254 1.4391934 1.346376 1.4766387 -1.004804 1.5744693 -3.3558764 -3.1586208 -0.67541015 1.014165 0.5465617 -1.1272264 3.198984 2.0940723 1.472017 -3.3069935 -0.5693448 -2.5158195 -3.9874458 -4.5466557 -2.5469503 4.068216 -4.0616 2.3241413 -0.7188557 0.2334187 3.3677254 1.916068 0.63436085 1.6607879 1.0126752 4.592598 -0.041625727 1.7048087 1.7413366 1.2950832 3.426229 0.7389803 -1.1766939
alguém -0.58185536 0.7154349 -1.38438 -1.1612164 -0.29921117 1.353127 -4.0736156 -2.3349564 0.96961045 0.5430745 2.666469 0.8603297 -2.3294582 0.09099783 1.5567706 -0.0019470217 -1.8556694 0.67836535 -0.6023478 3.6164086 -2.111701 0.56139565 -0.14536908 -3.3418381 -1.6628891 0.24832852 2.9742785 1.9638904 2.7246857 -0.77146 -2.011287 -0.8215456 0.9643693 -1.1742612 -0.42247987 2.337508 1.8006699 0.6701948 -0.42015475 -1.4395568 0.4960609 1.5180671 1.8377492 2.1787455 1.1937973 1.0732088 -0.74982107 0.27004302 -1.9093119 3.1954477
dursley -4.1171355 1.728686 0.53058094 -0.8013511 -0.04716097 -3.1259577 -1.4602242 -2.1515923 -2.572783 -1.0510019 1.9652792 0.55501574 -3.2538228 1.4543326 -3.5744216 0.38355547 -0.11398414 -1.0715758 1.7799221 5.885744 3.6629925 0.2652743 -1.9395881 -3.389053 3.1043468 4.4797297 4.3743014 2.9396143 -1.1541398 -0.07061255 -5.0847163 3.349392 -2.2946033 0.26996803 3.421358 -0.34624702 2.229645 2.539753 2.0692823 2.9203649 -2.4312363 -2.2449698 2.0309143 -0.45637167 0.4682917 -1.8195772 -1.2014844 -2.7541285 -1.9250275 -2.3872955
depressa -0.41239604 -0.8383538 1.709147 -1.9419937 1.2853686 1.1961944 0.8790382 0.25129262 -0.9113682 0.5042817 -0.8232435 -2.0917428 0.08129405 1.0823307 5.026388 0.46088433 -1.4982157 -0.584821 -2.745447 -0.076285206 -0.08233598 1.7763364 0.069636874 -0.15149541 -1.4692734 0.20004466 0.886498 0.7683923 1.3238451 -0.14927796 0.040864367 -0.22422375 2.0422962 -1.7436005 0.045684904 2.4732363 -2.1135633 3.1005428 -1.7428439 -2.481115 -2.628625 -0.13001542 1.9317694 -0.0612067 -0.31349996 -1.9715447 2.706882 -1.7284391 -1.4676158 -2.4031684
fred -0.6894501 0.7393467 3.5591087 -2.2713377 1.696949 -0.3750599 -0.8256504 3.509695 -2.7091684 -0.40535372 2.0767848 0.14260736 1.9297051 2.4624882 1.3102077 3.382417 -1.8219289 3.8507545 -0.7938934 -0.40481064 0.36495557 2.8880785 0.5572372 1.2888364 2.0205877 -0.66026324 -1.1027604 -0.71515864 4.1079216 0.03999881 2.7036054 -4.8502893 -0.08431001 0.42689812 0.037009347 -0.87115407 3.6164832 1.2991372 -0.89198226 0.016830761 -0.32434574 -0.400094 0.84007055 -6.406574 -0.24985114 1.1610596 -5.9820504 -1.5889937 -1.795528 -0.7102214
cara -0.22554557 -3.7830067 1.4041414 -0.26680246 0.19469345 1.9192235 1.5193536 2.5103524 -2.2805598 -2.4135468 -0.19317165 0.56018597 -2.7712092 0.7428323 4.544197 0.14261597 -0.24097812 4.6094246 -0.4572507 1.6316855 -0.1540743 -3.003094 3.0653996 0.57063377 -1.120016 -2.122995 -0.5062099 2.4406073 1.4162854 1.2031411 -0.8720933 2.247829 0.7978267 -0.05239856 1.4383172 -3.168921 -2.8452585 4.161502 -0.45075443 2.3454762 0.98063916 -2.8979867 1.6191792 -0.14183553 1.8278888 2.9547002 -1.8320327 0.29071048 1.8660386 2.5272365
fez 4.09844 3.075096 1.8635687 1.9958867 -1.8804322 -4.8842297 1.4281753 2.056869 -0.97230875 0.01481197 2.7572231 -2.2951565 -2.3392148 -0.593103 -0.7050111 0.8467755 2.3825495 -1.103044 -0.4037136 -2.286757 -1.1671289 1.4200096 0.7353995 3.1423967 2.3519046 1.4632759 -2.9444666 -0.6886413 2.068048 0.36803025 -0.15929805 2.1849244 2.7348983 0.20538034 2.7199657 -1.7541723 -1.7717714 -3.485955 2.773145 -0.4073379 1.2496028 -3.1305997 2.823435 -1.635003 -2.915601 3.2805393 -1.8701829 1.549012 0.4058387 1.2152306
três -1.5937898 3.2097044 -2.3542228 1.5690063 -0.46173826 0.7077813 -1.1279773 3.9133244 -1.201729 1.1722616 2.044811 0.67837936 0.4721664 -2.0564306 0.6340343 -4.0738497 0.4952695 -3.50842 -3.3501108 3.2633834 0.16808188 0.23707137 1.3373411 4.1103454 -3.4399226 2.0066297 -0.08633881 -3.6204255 -0.47374186 -1.9232361 0.19970648 -1.062035 -4.285455 1.3915471 -1.3067639 1.2514583 -0.19886173 0.3777619 1.3591353 -1.4648851 -2.032547 -1.0657451 -3.1043093 -0.768648 -0.1576503 0.8824088 1.5750034 -0.41218013 -0.59739566 -0.33213115
ninguém -0.6546747 0.6987159 1.382858 -2.1081562 -0.053918693 2.002395 -2.136997 -1.9435526 -0.3270934 1.8625916 0.6533125 0.16473223 -1.7749467 -0.42609045 4.930304 0.726224 -2.228487 2.81389 -2.0937605 1.9059495 -4.492404 0.5334521 -3.2480853 -3.3188703 -2.2281098 0.49394557 -0.5734412 3.4138901 -0.43041843 -3.5264354 1.7354764 -0.6651817 1.919272 -1.1401248 -1.406554 3.7120504 4.245823 0.8590371 0.7334789 1.183227 -0.75928915 1.8250966 0.56546664 3.559914 0.105494656 -2.0216072 1.3012822 0.985784 -2.035821 -0.7637508
hora -4.633535 -4.218402 -5.7639513 0.09815973 -3.15114 1.2610606 -3.0406868 -0.6509249 2.460633 0.94384927 1.2008086 -3.242256 -0.6643347 3.1632342 -1.0309798 -2.5563025 0.9368999 -1.1024925 -2.2022069 1.7136054 0.55850315 3.8100092 0.7789057 -0.58528584 -6.2389293 0.3397101 1.2526343 0.76993227 2.3593194 -4.0958714 -0.58156073 2.7566786 -1.0861591 0.83118916 2.7173305 -2.044505 1.1847519 2.557547 0.69534147 2.803541 1.6595922 -2.0288367 -1.4894811 -2.211126 -1.1948359 0.72969407 0.34909755 -0.34856403 -0.46818134 -1.8793882
noite -2.3841846 -0.35920802 -0.8817815 -2.4386182 -2.6633213 2.5273852 -0.5460445 -2.93468 2.8450778 4.231092 -2.6170237 2.1358323 -2.990455 3.8696456 -4.3057337 -3.0133471 1.3601028 1.2511513 -1.0490533 -0.14207216 -0.5302422 3.268871 -3.0653634 1.8490542 -3.1025944 -1.1543641 -0.049146548 2.0395293 6.0323434 -0.8756639 -0.6684348 1.5793607 1.2381922 2.8219192 -2.3822858 -0.6667726 3.7185237 2.5404165 0.6143682 1.4425792 1.5885341 -3.0136 2.2396846 -1.2274613 -1.3760861 -4.2245636 -0.32390007 -1.5389572 -0.32094395 -2.1679575
frente 0.3334778 -4.8042474 0.8151694 2.6543965 -0.51109546 6.084643 0.5691686 1.5656441 -1.8596711 -0.9398599 -0.4196225 1.3390341 -4.3233457 -0.3233522 -1.8572713 -2.818845 0.32223523 0.5099775 -1.2998744 1.0530959 1.5670102 -1.2423339 -2.066702 0.45643303 -1.8853232 -4.766045 -0.103976704 0.27700678 2.926259 -2.145918 -0.7882265 0.23339301 -0.4135083 2.6151805 -0.12025508 -0.75891817 0.41817003 1.1790189 -2.2941556 0.40371493 0.09788622 -3.2995172 3.7913647 -0.8138123 -0.3199096 1.5977188 -0.34130216 2.1324296 -1.8427615 -4.097028
pode 0.11037313 0.66386545 -1.0725278 -0.6420764 1.7204549 -2.2409256 -0.81394076 5.0970597 0.22254905 2.687092 0.070922814 -2.0734844 0.49936843 -2.2958014 -0.6869803 1.9309422 -0.4169914 -0.4996155 0.57276887 -2.5737438 0.74810886 1.0926296 -2.8782437 -1.7427403 2.6226296 1.214284 0.3281724 0.08766106 0.38364643 -3.7038875 2.983467 4.168022 0.98581177 -1.8559091 2.1802008 -4.880277 3.1197803 -1.6942983 -2.4164937 -1.3720369 4.4484863 2.4391575 -0.35484338 1.7596451 -2.1723661 2.7938464 4.4217296 -0.78360474 1.1141144 2.836714
riddle -0.35902625 -1.594307 -0.54676104 -1.9960778 0.21816055 -2.1095724 -2.3810973 0.1567322 -1.5383438 -5.2134004 1.0413929 0.052328072 -0.79149574 2.3152592 -0.7534918 0.55693275 1.0615151 1.0020806 -2.954942 -0.8686511 -3.5957208 -0.13589047 -0.011894218 -0.24288775 -1.523053 -1.1353273 1.2201276 2.5502603 -0.25057292 1.536571 1.0030448 -2.428371 0.55592996 -3.1997154 -0.5110548 2.6796007 0.24798554 -1.4756252 0.62204325 0.54630935 -0.03577956 1.258305 -1.2884223 6.0348816 -0.13918246 -0.8711255 -1.414057 -2.9199054 0.54423875 1.806595
acho -0.42802137 1.9591377 0.22722335 -3.685087 -1.7136239 -0.778119 -2.4085748 1.0843674 3.8848882 1.3992056 1.2272546 -1.6913273 -0.22712813 -0.06122583 0.5050064 1.9919482 -1.8411222 0.0020947768 -1.4532771 -3.9252493 -0.73403275 1.2073404 2.359608 -1.20968 1.5752485 -0.3280466 -1.3086677 2.019442 2.998923 -1.2902308 2.36199 0.03295858 -0.91207093 1.576418 -0.5442758 -0.19098775 0.9181773 0.97133666 -1.3722112 0.47501218 1.6510803 2.1260414 0.74819845 1.489523 2.0346851 1.9754193 1.0203238 -0.55031973 -1.0263557 1.4633248
dentro -1.4820002 -0.38125694 1.7548963 1.2055311 2.6684449 1.5436413 -2.6926892 -1.9691423 -0.49623987 1.2635716 -2.357995 3.2904754 -0.7275966 -1.0121362 -4.414592 0.47985142 -1.8361584 -0.9660695 -1.4832371 4.321961 2.2752392 1.9502399 6.128013 0.3797197 0.5160268 -2.9029005 1.4673856 -1.1276264 3.517057 0.56210566 0.44428906 1.321743 1.0325532 2.7229838 -0.7443165 -0.91064173 -2.301472 -0.054418873 -0.0061327275 -2.8567557 -2.7830064 -0.47823128 -2.793158 2.7692118 4.273872 0.9715597 -0.3681914 -0.40087962 1.8935859 1.7160572
minha -3.7653167 -2.5889049 -1.8616563 3.4173768 0.4979915 0.34651238 -2.336533 -0.8905454 0.70662564 -0.13270953 -2.4260662 1.6163111 -2.0050225 -4.3794527 0.49601042 2.2966614 1.9875575 0.9704731 1.9529216 -2.4013143 0.43286866 1.5921199 -1.7209424 -1.5657083 0.35668468 1.2810265 -0.092323214 1.9641577 1.8669295 1.4155645 2.5580127 -0.0046171932 -0.39453378 -0.25265518 -0.22107317 5.062236 3.2693527 -0.8647513 0.5764626 0.6108703 3.8512468 -2.0559149 -1.1140525 3.6409378 1.3094738 1.9993674 6.638265 1.7500572 -0.43685055 -2.89838
sonserina 2.3062909 -3.1246405 0.5519521 2.9928036 -0.58431786 1.4859304 -3.3710673 0.68453074 -2.115176 2.9373324 -0.05532663 5.1608887 -2.2392998 0.8074554 -1.2236152 -0.73371047 -0.12234994 4.8730145 -0.62529147 -0.66205204 1.3922814 1.8249952 2.9548323 -1.6298927 1.7656835 -3.0834424 0.625752 2.0300784 2.1693394 0.25383922 -0.6928523 5.210589 -2.9949145 1.4482859 -4.4196286 2.579405 -1.8279583 2.749158 2.7876265 1.5110843 1.2563345 2.3398871 -2.2710714 0.4597689 -3.8218026 -0.87118125 -1.6640512 -0.7830355 0.442789 -2.7282698
nas 0.75376004 -2.4732099 2.8125792 -0.72483873 0.6814717 1.4466579 -0.84659797 -0.23019323 1.1143157 0.45486817 1.299985 -0.7616907 1.0939627 2.3088493 -3.20117 -5.902429 -0.7367974 -3.3913414 1.0641834 1.381372 3.9583948 -0.9378653 1.252444 -1.41082 0.30785295 -1.49522 1.397112 -0.6328904 -5.143553 1.0421671 -5.7122583 4.395463 -2.0131755 5.721273 -4.430534 0.34204626 0.05417056 -1.4708339 -4.3109603 -2.9385903 -2.286086 1.8739492 -2.163031 -1.6076264 2.0129802 1.2883333 -0.17734598 -0.9808365 2.2948198 5.2061696
sempre 0.14836015 -1.2184204 2.0143588 1.5721278 -0.20165831 0.00083399954 3.627615 -3.2595391 1.5785478 1.7447661 -4.8430557 1.3412607 -1.5376937 -0.27846563 2.386019 -0.8298547 0.3270584 -3.870263 1.3248632 -0.38406652 0.3096259 -0.70025355 1.1957195 -1.353261 0.19837059 4.878031 -0.72249573 1.9047668 0.243637 -1.0640697 -1.2033103 2.1779535 -3.7038782 0.4748631 -2.2041314 -0.757007 2.804633 2.242722 -3.3361669 4.037567 -0.38538364 -0.30991718 1.3108766 -1.926074 -1.0340375 -3.0297565 0.6772974 1.5788106 -1.5533392 0.47024184
carro -2.3853815 0.41671506 0.84116596 -2.9658806 1.2989925 -0.5691848 -2.2910914 0.13992453 -3.1392322 1.5685309 -0.759428 2.8968997 -2.031252 4.2045374 2.3466902 5.117335 0.2654895 -0.5955605 -2.3886623 3.2895439 2.298689 0.89629257 -2.6223876 0.40306386 -0.79073995 -0.7008426 -0.41106707 -2.1627238 -1.2922407 -0.44863918 0.23598057 -2.0976086 -0.23748983 -0.635179 2.305624 -1.4869632 3.0809374 -2.830823 -1.9780917 -0.54582745 -1.4324667 -1.3475658 -2.6125054 -0.64647025 -1.0117537 -5.767899 -3.0545042 -2.4676778 -1.5776951 -3.05312
bom -0.23547257 2.1742818 0.34604636 -0.30425003 1.3521764 -1.463055 -3.6822574 1.6441078 1.8004074 -1.4177665 -1.3636568 0.8008183 -1.1166973 -1.403264 2.3541338 -1.5054867 0.13287634 0.9215515 -0.67133933 -0.21909097 2.1884434 0.785753 0.49577865 -1.589016 1.3190886 -0.12023451 -2.0523586 2.5936804 1.2157322 -0.93315196 0.040916547 2.635292 -1.5141997 -3.3674076 -2.1632903 -1.4859276 -0.81847847 1.7921 -0.98998106 1.4869951 2.1191368 0.947063 1.8712621 0.71673054 2.3760576 0.9922998 -1.0897292 -1.024779 -0.6550063 -0.64112127
jorge -1.4291667 2.8492522 2.2947118 -1.4745182 3.9604137 0.16206637 -1.1465394 4.7672987 -5.1224866 -0.22923148 -0.48313305 2.9802296 3.7687726 1.7299681 3.9771786 2.2819157 -1.8698254 2.2618425 -0.96707046 -3.0234275 0.3200283 1.0414746 -2.6626034 0.6099021 0.95530725 -1.6239504 -0.16043864 2.4472806 -0.07923885 -2.338255 -3.2827697 0.2730775 0.906109 2.5117393 1.103205 1.8829486 1.8544292 -4.1047397 -1.1892715 0.27362353 2.820596 -3.3399827 -1.8851091 -1.4082534 -3.512331 -3.8390436 -4.805671 -2.8810754 1.4729745 -0.06996871
gina 1.0093166 -1.7297715 1.2691691 -1.0265313 2.2185817 -0.8935578 -0.7862255 0.84143496 -3.3545773 -1.4033004 0.3109732 0.39598042 -0.11454131 0.53222007 3.2327306 0.2172848 -0.6613183 2.844076 0.004863332 -1.0124357 -0.36789358 1.5232376 -1.5390862 -0.35061434 2.4772642 -0.3945475 0.1685858 0.8020923 4.0450983 -1.5411993 0.82533485 -2.9807725 0.9990637 0.6743629 0.21685867 1.9191787 -0.3469044 -0.6444427 -0.6717351 1.4230386 -0.84366196 0.092683226 -3.650148 1.0755701 -0.7353741 -3.5722272 -1.9200504 -4.531352 0.567095 0.4298464
estar 0.094913974 -1.0825789 -4.3309546 -2.7717352 -0.9414379 3.97167 1.271736 -3.2368498 6.1366224 3.8680816 0.48963928 3.12684 4.7761 3.2532847 -0.56200737 2.5331857 6.5301905 2.9702995 -0.39792415 4.9529815 -0.7704881 -0.5517269 1.9239309 1.0720099 0.94972605 -1.2118154 -0.3970244 0.9275749 -3.1620123 -2.2353444 1.8982661 -0.46393958 3.49183 1.3352731 -1.669317 5.385666 1.2429926 -0.7754813 -1.0431589 0.27939484 -0.978715 0.5854633 4.056097 0.96792734 1.6538166 -0.92534703 -1.5423584 2.6498802 -0.30474344 0.010757686
aos 4.3385644 -0.22576812 -1.1442572 3.8892162 -3.1553707 3.485765 2.4550724 -0.7081181 -2.363096 -2.1751244 3.1181648 -1.5997803 -0.9857551 -2.1753902 -0.26249525 0.22826757 -1.849844 1.0153928 0.7147441 -0.7358438 -3.810978 0.26300764 -0.037529517 6.242371 1.6311549 3.253052 -1.05136 -3.1617217 3.3559318 3.4261417 2.1396654 -0.09292263 1.2483835 0.7068249 -3.025488 -1.0896374 -1.6540371 -0.14503878 -1.7656955 -1.106819 1.3663867 3.2565248 -2.068374 -0.5568054 4.3746915 0.7952861 0.54856074 -6.91713 0.5966452 -5.9866924
estou 0.6677562 -2.3519151 -1.5221853 -3.616792 0.5540115 0.58695674 -0.6953626 -0.20229156 0.49860242 3.0305858 -1.3941274 -0.75457406 2.2718246 2.9020658 2.483951 2.0572283 1.0814095 0.47347805 -0.49003685 -1.9986972 1.0521768 -0.85038817 1.1626114 -0.31728017 2.7643273 2.3650649 -2.6722212 0.6213545 -1.0051044 -1.0305884 -2.523764 -1.9798275 2.0073593 -0.025573468 2.9543989 -1.2498307 0.50457567 0.4528916 -0.94530064 -0.94376725 8.28932 -1.7863017 3.1701243 2.9444766 1.8538091 -0.3060255 3.3267996 0.983157 0.86871403 -2.7500517
falar 2.9974911 2.1317377 -0.43361786 0.62597424 -1.342115 1.7771254 -1.0856711 -0.2922843 0.17955215 -0.6266334 -0.8087134 -1.2530352 -1.8264836 -0.19588934 0.8442194 1.9044092 1.4827619 4.75161 -1.7118113 3.8761163 -2.8203661 -0.17950656 1.2165328 -5.4706426 -2.55169 -2.6514068 -1.3515102 -0.29017198 -0.34635034 -0.12548053 0.27298334 -0.48317173 2.9407797 0.49890748 -0.9183762 0.9867246 -0.52629524 1.2445062 -1.4162242 4.3313394 2.2933772 -2.3928225 3.3348303 1.2553117 -2.0568814 -0.9033993 1.867498 0.6147528 -2.889804 -0.20952427
outro -4.671932 3.1672995 -0.67777765 0.51569295 1.7624047 -0.3012098 -1.0744282 4.373495 -1.9678471 -0.473806 -2.1019998 3.3630304 -0.175307 -4.386232 1.5491602 1.2690006 -0.96370506 1.6920401 0.16229224 0.09327343 -3.1055565 -1.1623471 0.16061787 -0.9508198 -0.92625314 -1.8907907 0.54359066 0.83232504 0.1726802 0.5780525 -2.5799034 -0.1461453 -1.0772139 -4.1991735 1.6914098 2.1315536 1.4260778 -3.1220026 -2.4228437 -2.5966973 -1.4078356 3.8882422 -3.0964894 0.94440097 -1.9951372 2.0264773 -2.1274772 0.9798241 -2.096948 -0.35436144
olhar 3.622004 -3.6944945 0.5026466 0.8404301 -2.1807063 -0.16828486 -0.46551934 0.31495118 -2.6931803 0.78254974 0.8013674 0.8863202 -1.4401549 0.39839023 4.1284537 -0.4577506 0.9407136 1.3963339 -1.345226 5.053517 -1.856792 -0.99467665 2.142101 -0.0058986894 1.2110049 -4.4636097 -1.7122071 0.8839994 0.603289 2.8623517 -4.093517 0.66207135 2.1762042 -4.547529 2.0524054 0.83451784 1.576757 -3.6743922 2.8785658 0.53450006 -2.0818276 0.08399326 4.1794906 -3.0065088 -0.20878693 -1.1832876 2.1235328 -0.16462985 1.5310822 -1.4941114
sei 2.436005 -0.9913653 2.009923 -2.384742 0.714138 -4.8297267 -2.4493392 0.54794484 1.0842098 1.9292859 0.34136146 0.5449323 -0.28621295 -1.3443742 1.4645848 1.9401299 0.08742261 0.748299 -0.2992953 -0.96100235 -2.2674327 1.7874745 3.5572276 -1.7960459 0.17718399 3.19324 -0.52965033 1.9251595 3.217273 0.4854619 -2.035148 -1.7165409 -2.1450496 -0.6740323 -1.3900527 -0.8650104 1.5441542 1.966223 -2.3216457 0.625755 3.162518 1.0487424 1.0319879 3.0730162 -0.14091712 2.0417829 1.4103005 0.8964911 -0.5653078 0.6194876
isto 1.2118077 1.0302966 -2.392192 0.0722471 -0.6950868 0.52394414 -1.0290402 -1.0444139 2.8954005 0.64940166 1.0161268 0.95332277 -2.8082209 -2.4895704 -0.12700577 2.2179096 1.9692664 4.114555 -0.58289266 0.49860495 2.251797 0.9830157 0.07935914 -3.9006636 -1.9869462 0.42099118 -3.5984569 2.1955316 1.6924394 0.68231213 1.1018655 1.1104429 -2.6387 -3.8198907 2.0789042 -1.0609914 0.4799472 0.6227551 2.3598213 2.3214986 0.93510014 -1.1475583 -1.518857 1.27529 0.805852 -0.2664364 0.2945469 -1.9189372 -2.698389 -0.2656427
pessoas 1.8728929 -0.63538325 -3.9634533 -4.1127157 -2.110261 1.761903 0.24697717 3.4011257 -3.2931478 3.6039193 -2.9570796 -1.6247987 -1.1214803 -2.0880392 2.9387796 3.1505516 0.23360722 -0.61706454 3.8630872 0.9988304 -3.0686755 1.638841 -2.5765333 0.73213017 -3.393938 2.885336 2.2125473 0.869531 2.425884 -5.6963153 -2.338256 -0.094075516 -2.7080767 -0.35871002 -2.2626112 4.061434 0.504996 0.7683221 -1.140709 -0.2427924 -3.4788182 2.798225 -0.54027647 -0.09182952 -2.9639506 -0.6709871 -1.0962995 0.16272357 -1.4386188 -2.8712842
madame -2.72654 -1.2271537 3.8025892 -3.274341 -0.878207 0.80399144 0.9836994 4.0117364 -5.423924 1.398777 0.8689836 -2.559914 -0.42030862 0.654973 5.402034 -4.6752005 -2.6241767 5.2224483 4.512803 -0.6835198 -1.6816962 -2.852968 1.9425045 0.10974453 -0.065048285 4.6273737 -0.59650314 -3.630754 2.6940022 -0.08858769 -3.8225317 -2.0882914 2.2990208 0.54362017 5.495015 5.3230195 2.5790377 1.9244566 -0.7416255 1.218114 2.3228068 0.82752055 0.21300939 -1.484871 -1.6008097 1.7888778 2.0333092 -4.690521 -0.6063072 0.62517315
pedra 0.25615618 -5.1407003 -0.5764313 2.396885 -3.4009206 2.790996 0.3854889 -0.53525484 -0.42200628 -1.1428432 -3.919672 -0.886979 -2.2943172 -1.811002 0.8864459 0.076909915 3.4258454 2.3109818 -1.2675809 1.8824415 -1.5823408 -1.7392132 -0.861562 -4.1787553 -2.0610683 -2.3865213 -0.07917994 -0.6082094 1.2111115 -2.088795 1.8084748 0.54337156 -3.022522 -0.82157975 -0.7730722 -0.5518427 -0.491635 0.9604315 -1.9790595 1.3771515 -3.3716953 1.9260168 1.8217654 3.0586398 -1.1907779 -3.5757794 1.2871261 0.7478884 2.1036768 2.5902698
filch -1.5441028 -2.4531677 1.745783 -0.5140803 1.6570085 2.157854 0.901498 -2.4402657 -1.5879955 -0.2465399 2.0088007 1.6421384 1.0696108 0.90124285 -0.37991735 -1.7644083 0.893454 4.633041 0.03013729 1.1268083 0.5055652 -0.72780776 1.3197904 -3.685889 0.7380837 3.475798 -1.1532092 0.4790363 -1.999639 -1.213199 -2.235349 -1.8175702 -0.03253026 0.49787074 0.8599518 2.6550786 -1.2155274 0.62124383 -0.075500555 0.77009207 -0.08822036 -0.6942542 -1.8358326 4.41033 -2.4926126 -0.1746976 0.01384183 0.9412641 -2.2950425 2.114391
às 0.07731837 1.2455025 -0.23562583 -1.2652951 0.124490425 2.059407 -1.6259639 -0.6455117 2.8125648 2.3350284 -0.41098663 -3.6728523 0.2490075 3.9269185 -2.4529362 -1.2062849 -2.1187537 -0.8443718 0.31520784 1.4888303 1.344104 3.8784916 0.57824874 1.8996814 -2.444134 3.5799396 0.72172576 -2.7104387 -3.708182 -1.7304592 -1.3182446 1.811089 -2.4198167 5.726926 -0.4117077 0.61682075 -0.36709014 -2.4856012 -4.0593977 -1.7599212 -2.8296583 0.2920433 -1.1186523 -2.0857987 2.6206021 4.6171136 1.7021093 -3.4115102 0.24833278 2.365041
cada -1.8071556 0.25802916 4.7952957 -2.238352 -2.1221683 0.046579093 -2.229798 -1.4075509 -3.809481 0.3815324 2.2767851 2.9239082 -5.5699735 -7.069453 0.13640371 -1.361114 1.4392527 -1.4691917 -0.2763385 0.92086303 -4.186228 -1.6182623 -0.9310394 5.291177 -0.46260536 -4.276211 1.5838873 -3.2725482 -1.5707012 3.4180326 4.0815177 1.9368341 -4.459716 -0.6273805 -3.4628246 1.1993984 0.35229427 1.1889627 0.7066868 -3.345689 -2.634402 0.33909106 2.7027142 -0.38164335 1.3056382 2.808003 0.15794173 1.2190657 -2.5560834 0.7313318
